G001871415	-0.1627327	-0.13179676	0.18244305	-0.18268287	-0.56731594	-0.19291268	-0.016282763	0.017764738	0.13970779	-0.0046010446	0.28619564	0.048770174	-0.7391944	0.4753121	-0.41161302	-0.4810028	-0.17924699	0.10483326	-0.006943403	-0.5524608	-0.8186894	0.38840207	0.16449411	-0.085279904	0.3572523	-0.12199445	-0.35471013	-0.15731497	-0.53182316	0.17043301	0.17184615	-0.24263582	0.37747228	-0.37831628	0.12119304	-0.017028587	-0.036170375	0.46336937	0.12627952	0.19419661	-0.5413973	-0.7452546	0.37629837	-0.17637175	0.22123888	-0.00044484623	-0.33634275	0.48324528	0.14915258	-0.6965231	0.4691479	0.29853675	-0.027588196	0.15342692	-0.43590158	-0.21767227	0.31541964	0.36077318	-0.42039856	0.34671056	0.19403103	-0.11670069	0.29598638	0.31912673	0.38845393	-0.35848385	-0.8307015	0.24111095	-0.7012461	0.05258138	0.21135361	-0.10167075	-0.053789534	0.4821192	0.11510053	0.3031509	-0.63116026	-0.07778145	0.42868847	0.15237026	0.1463962	0.16397883	0.48822322	0.3891372	-0.03429485	-0.7339961	-0.7658473	0.4925411	0.33742788	0.04653105	-0.05713494	-0.12668687	-0.07248626	-0.32069942	0.10242079	0.13606423	0.3797228	0.029552143	0.14882748	0.29449365	-0.24634172	-0.43803215	0.23360224	0.25277647	-0.1879743	0.352465	0.16273461	0.93200445	-0.6318168	0.9369692	-0.30537105	0.111058034	-0.034775313	0.08867955	0.0029923525	0.16357335	0.5491966	-0.059901595	0.24088952	0.099780105	-0.101999715	0.15680897	0.08706971	-0.3037876	-0.522031	0.36613783	0.12642816	-0.17207374	0.034009773	-0.011095714	0.14078146	-1.0058532	-0.21926479	-0.5865806	-0.20915636	-0.1067875	0.34960645	0.16666575	-0.49805495	0.28736335	-0.4988891	0.10798677	-0.8014142	-0.35197088	0.0014925012	0.31078866	-0.46359387	0.043600786	-0.36871496	-0.43434402	-0.07152918	-0.15860318	0.5203518	-0.5667113	0.25600278	-0.2947139	0.15884143	-0.23584083	0.24454015	0.13791719	0.12866813	0.3771338	-0.084566906	-0.6640055	0.081997275	-0.650263	-0.07396691	-0.33551705	-0.23271108	0.033362225	0.43217635	0.07672269	-0.25801092	-0.42856902	-0.30608803	-0.6358401	-0.14831766	-0.17626414	0.11587952	0.35265046	0.3248063	-0.39894667	0.066515416	-0.33357266	-0.4827506	-0.5647602	0.11966557	0.057788372	-0.027470164	-0.3377377	0.32526577	-0.3434631	0.15864055	0.6030021	-0.15629521	0.6384659	-0.21609807	0.014894044	0.18674254	0.7246839	0.02482921	-0.043011986	-0.37215015	0.652651	-0.19307326	-0.36444962	0.026969153	-0.09619599	0.32008454	0.33716628	-0.089120224	-0.3696265	0.33045593	-0.40261	0.120453715	-0.35192516	-0.09327486	-0.43961665	-0.4508124	0.00704832	-0.01587495	-0.43693066	-0.49231598	-0.021053541	-0.16778752	0.46979302	0.25219116	-0.2556958	0.110150516	0.39329314	-0.3291612	0.032916754	-0.3711007	0.44260982	0.37791803	0.14645678	-0.6261621	-0.79956776	-0.06147448	0.24992605	0.12860517	0.59944886	0.18475161	-0.15773015	-0.020555131	0.009038536	0.5575377	0.70679355	-0.21841188	0.015195012	-0.036336444	-0.31338122	-0.057775665	0.8772949	-0.10325747	-0.17857541	0.4232333	-0.1653888	-0.18314278	-0.55649716	0.044040956	0.30349955	0.70137197	0.16974235	-0.06871546	0.038420882	0.7000577	-0.25293523	0.012881987	0.28480226	-0.3887852	-0.49363554	-0.15625875	-0.5591345	0.6292861	0.006254863	-0.029345643	-0.28648248	0.1495621	-0.55179393	-0.02323144	0.21330291	-0.3263091	0.15312938	0.4007009	-0.06297451	-0.56457657	-0.41221946	0.008812244	0.50682384	0.40360144	0.25204292	0.29818615	0.15576194	0.1578073	-0.039205097	0.34172192	-0.39501983	0.20697887	-0.04221984	0.50695	0.9218201	-0.12842073	0.24728806	0.04106664	0.63450646	-0.35680914	0.4820512	0.4702494	-0.106993414	-0.3659167	0.02329513	-0.082358554	-0.2708474	-0.021034133	-0.034922615	0.028068408	0.17790276	-0.19858314	-0.25575063	0.79614335	0.43202057	-0.3302483	0.2848789	-0.27624714	-0.6971902	-0.17454924	0.78917027	-0.08336468	-0.106102526	-0.093945235	-0.6596129	0.30459952	0.039404158	-0.5142668	0.05052521	-0.21788174	-0.017112406	0.17070639	-0.72075266	0.444832	-0.23982528	0.035070457	0.48476633	0.16085419	0.51112586	0.31033295	-0.07955724	-0.1552716	-0.26563635	0.08045796	-0.3650565	-0.25708905	0.34702557	-0.1282927	0.35079873	-0.57745665	-0.5114931	-0.24083073	-0.025877532	-0.2249402	0.20755066	-0.44411182	0.13800438	0.106937334	-0.0023434944	-0.48863256	0.048989378	0.40050584	-0.26691496	-0.2675793	0.11228601	0.5252824	-0.1266088	0.27776763	0.15483971	0.19146913	0.17463338	0.0450233	-0.15295483	0.5302733	0.36425757	0.22854732	-1.0186253	-0.2868755	0.28905323	0.6474395	0.18513209	0.26837808	-0.048711825	-0.15979347	0.4586596	-0.22068667	-0.39035207	0.31939718	0.22181258	-0.055394888	0.41157332	0.48932755	0.18037707	-0.21094729	0.35376355	0.29075167	-0.5236046	-0.48308593	-0.22895257	-0.12404666	0.29417658	0.148009	0.5372782	-0.083847106	0.21102257	-0.38709062	0.22943905	0.42887464	0.51577365	0.035442	-0.42482919	0.4000664	0.21783921	-0.54657745	0.29824865	0.38039002	-0.4217347	-0.22542281	-0.44631806	-0.89861727	0.068775386	-0.037090674	0.47184873	0.10504499	0.27577922	-0.6009102	-0.26084042	0.2336418	0.23577274	0.28671244	0.2236271	0.13680014	-0.097733125	-0.1609632	0.24368952	0.15714954	0.053557873	0.35702285	-0.20683898	0.09136477	0.20902516	0.28790778	-0.004699571	0.2516956	-0.03034403	0.047115725	-0.14656371	-0.40126234	0.24643342	-0.39213902	0.18662491	-0.121229045	-0.14025536	0.14417048	0.0051195547	0.1634045	-0.40228584	-0.08010028	0.4471337	0.046945438	0.085346796	0.218724	-0.031683564	-0.101118825	-0.4006925	-0.48201284	0.6717053	0.26694125	0.06323764	-0.04093977	-0.51539844	0.38179338	0.12759982	-0.4338828	-0.53572786	0.08583386	-0.011420844	0.3219491	-0.62903863	0.31212065	-0.01980304	-0.33288318	-0.05083992	0.61659694	-0.097477525	0.17010495	0.40169486	0.07002644	0.37027216	0.28684157	0.28139332	-0.039777078	-0.5613463	0.24821867	0.31162012	-1.1311082	0.24988566	0.7485863	-0.053704135	-0.18921702	-0.25417945	0.35793826	0.24223822	0.2657996	0.40791723	0.09664658	0.24402729	0.33575845	-0.5141463	-0.3960419	-0.45689562	-0.4564532	-0.085889116	0.040091716	-0.2386872	0.30927423	-0.028295182	0.27886352	-0.1760579	0.097815186	-0.28479397	-0.029970536	0.31448972	0.34961352	0.32430205	0.49003235	-0.06866145	-0.075775854	-0.12913288	-0.083289824	-0.552852	-0.17835745	-0.59347755	-0.028317919	-0.6646915	0.37254122	-0.07214616	0.83819157	0.33663204	-0.16498171	-0.13505912	0.4331845	0.2902077	0.28119722	-0.0013104826	0.014479114	-0.059007883	-0.25978065	-0.1098704	-0.10456355	-0.22582917	0.038852744	-0.5980369	-0.5891837	-0.5154712	-0.5791916	0.14892673	0.052846584	-0.18963534	-0.8774159	-0.6064129	0.8609304	0.4872167	-0.43193042	-0.22485398	-0.32543224	0.11718983	0.26575214	-0.19451961	-0.50101656	-0.80120724	0.010040248	0.42059088	-0.08950989	0.025677769	-0.32167014	-0.08016242	0.48976564	0.1350987	0.26916727	0.07872781	0.07087422	-0.10398069	0.10177903	-0.55406517	0.51976067	-0.090344034	-0.35548404	0.51475835	0.36349505	0.37570137	-0.09687023	-0.41904342	0.42630252	0.048326377	-0.2750769	0.11797198	0.13129926	0.7271984	0.2725849	0.34010246	-0.31097466	0.49238718	-0.0853755	0.5513601	-0.83808756	-0.4121681	-0.18592665	-0.41726848	-0.2520448	-0.14806394	-0.510022	-0.15690643	0.09387699	0.51063305	-0.2950296	0.4795597	0.369853	-0.3372586	-0.12532616	0.30588657	-0.30693105	0.3074853	-0.34789777	-0.40173852	-0.032835193	-0.6451367	0.48422804	-0.57174593	0.29140696	-0.37488717	-0.09791384	-0.36129642	0.3458585	-0.12758644	-0.5073692	0.34500405	0.5145282	-0.05982209	-0.14940004	-0.68565947	0.3564536	0.15445323	0.0254881	0.43312442	-0.11010538	-0.08553086	-0.2183858	-0.27054182	-0.03661202	0.7106655	0.29231837	-0.18089554	0.53854465	-0.86405	-0.40070236	-0.21905339	0.45876825	0.03565607	-0.2316103	-0.009097839	0.1702279	0.6368619	-0.0532912	-0.36449277	0.319495	-0.11623523	0.2819321	-0.41021302	0.04929404	-0.23769362	0.36152613	0.2856674	0.3284114	-0.2851374	0.65201354	-0.3978043	0.46156028	0.2770946	0.42949688	0.47957432	-1.0250403	0.9349735	0.4587015	0.92554015	-0.12197971	-0.2804548	-0.11969235	-0.54671013	-0.63777095	0.16346465	-0.5515303	0.12557356	0.20051032	-0.1539669	0.19451158	-0.05040946	-0.14455362	-0.16161758	-0.35059497	0.12904644	-0.74249446	0.17709762	0.28613114	0.038784627	0.64020085	-0.10799986	-0.5605574	-0.424469	0.6071326	-0.42394438	-0.11558353	0.52175575	0.038447283	-0.13834475	0.3885186	-0.18762527	-0.13969098	-0.5253495	0.67891276	0.611115	-0.41914237	-0.19027029	0.43821892	0.17102498	0.01067287	-0.07144804	-0.3562757	0.2057345	0.09661864	0.09293412	0.26318488	-0.122599185	-0.30358854	-0.12795308	0.7216492	-0.6798815	0.07321692	0.03369315	0.3392761	-0.025114527	-0.30111903	0.055946328	0.015838519	-0.7074	0.2986775	-0.17124145	-0.048684344	-0.16457137	0.20301372	-0.2157758	-0.08408876	0.32040974	0.26186734	0.012226297	0.40426853	-0.17238128	0.15595663	-0.40859425	0.60872555	0.17467119	-0.1319847	0.48227233	-0.088920385	0.44509676	-0.067080945	0.14636078	-0.17104146	0.404992	-0.09317584	0.32742125	0.7974938	-0.6068164	0.21305962	-0.15052673	0.07004222	0.57135487	0.41014212	0.18439053	0.48642057	0.40118015	-0.20595856	-0.32221946	-0.51939595	-0.66052115	-1.0104018	0.32522705	0.054109	-0.30734032	0.35323876	0.13166535	-0.22750689	1.0026908	0.27043808	0.13919866	-0.44655004	-0.30977264	0.23799717	0.2165427	0.40024307	-0.38149753	-0.33693603	-0.58309466	0.61361575	0.05438346	-0.6033308	0.023040753	0.55299735	-0.12820815	-0.11970847	0.19926287	0.47217882	0.5689842	0.7025254	0.4335828	-0.08136876	-0.22689578	-0.1912211	-0.43689638	-0.07478009	0.57985306	-0.52390885	-0.36103266	-0.008467151	-0.19823746	0.16821551	-0.17510232	-0.5059003	0.26289186	-0.15659863	0.6640678	-0.19653514	-0.14478403	-0.4188671	0.37163776	0.05215015	0.24718092	-0.102838784	-0.076088816	-0.11086738	0.023430375	-0.40844527	0.37579694	0.24296293	-0.4987629	0.29682675	0.5639407	-0.19225188	0.0854818	0.3894431	-0.3162997	0.5432544	-0.4129519	-0.23599924	0.06862613	-0.19190644	0.38826698	0.17242025	0.2529907	-0.63703763	0.52828515	0.5243475	0.9805561	0.18042277	-0.34532535	0.25414813	-0.83232474	-0.2590166	-0.3477482	0.5496646	0.36438447	-0.27692467	-0.10096148	-0.06039752	0.056448378	0.27359623	0.53521234	-0.007940972	0.01387592	0.48019546	0.11337555	-0.06670436	-0.047595702	0.31307945	-0.17449902	0.18892363	0.23541318	0.092833094	-0.47222692	0.14372286	0.54123586	0.21931064	0.069997415	-0.5037232	-0.6752938	-0.024732284	0.026761524	0.18298382	0.29643318	-0.44161522	0.1585698	-0.81698877	0.23973018	0.23528434	0.42266908	-0.08719262	0.23524551	-0.17997257	0.54218274	-0.31789857	-0.4188418	0.019395888	0.2812169	-0.0056239637	-0.020303017	-0.22413127	0.12103048	0.3429006	0.22305048	0.051247984	0.23293787	0.26622397	0.019665787	-0.058077928	-0.24632008	-0.6072793	-0.25388598	-0.4953342	0.058449145	0.16526702	0.42155132	-0.19163981	0.13780238	-0.05685707	-0.13813962	-0.59075075	0.21619672	-0.24420832	-0.059814543	-0.004737893	0.042736255	-0.3887949	0.32683116	-0.1290096	-0.29502547	0.09794381	-0.03979034	0.49017256	0.4193935	0.27158007	-0.052581906	0.07620276	-0.13809404	-0.51187754	-0.016355217	0.011909433	0.63540035	0.35379118	0.11697955	0.31539977	-0.0054272916	0.5088126	0.22455832	0.52698505	-0.025755642	-0.0966212	0.93870926	0.07934282	-0.12144906	-0.45446166	0.2268383	-0.17946818	-0.20381624	0.43686855	0.13695876	0.08865121	-0.69224346	-0.06899611	-0.17738941	0.15524358	0.42983705	-0.016553057	-0.28632978	-0.11631765	-0.59024876	0.4145656	-0.39496374	-0.26016644	0.27013794	0.10009548	0.15625574	-0.23915565	0.041470397	-0.43778196	-0.17107993	0.052919835	0.32810962	0.3585865	-0.7034068	0.35044038	-0.64311975	0.29047096	-0.48957875	-0.20757948	0.07179366	0.33633736	-0.10139572	0.38584733	-0.78308797	-0.36745182	-0.30178842	0.33877245	-0.019881014	0.20333114	0.2814155	0.2516343	0.28754178
G001940645	-0.0036647227	-0.7597625	0.6539179	0.0074708443	-0.5865276	-0.15724024	-0.15090407	-0.4409896	0.32715827	0.44479448	0.62410325	0.47612917	-0.02872892	0.6153228	-0.60863274	0.08736597	0.4836482	-0.25043505	-0.1591822	-0.11551355	-0.10145033	0.21262807	0.3087066	0.14608735	-0.42457438	0.17237376	0.25593123	0.48574716	-0.3439209	0.0026674587	-0.15500155	-0.44543847	0.069056116	-0.020081578	0.03850378	0.14526021	-0.32980847	0.30917013	0.051792044	0.1761301	-0.8983335	-0.7426756	0.26389265	-0.010823349	0.24672917	0.31173316	-0.7062035	0.24607563	0.07839595	-0.9986772	-0.22701001	0.11397588	0.3979848	-0.338083	-0.9965894	-0.18366592	0.09082936	-0.015228173	-0.6659468	-0.29292196	1.1164588	-0.60063297	-0.27083346	-0.12491106	0.07944527	-0.52628577	-1.2140713	-0.21433297	-0.60572	-0.09767331	-0.4662091	-0.30044454	-0.37960306	0.974389	0.12805149	0.2834198	-0.63216513	-0.47182512	0.3884431	0.6716563	0.29334682	-0.20460297	0.23243248	-0.16024329	-0.9200423	-0.4758271	-0.15034571	1.13173	0.5198287	0.0074390676	-0.26666802	-0.8476963	-0.3829121	-0.46077284	-0.41593537	-0.008958278	-0.16681872	0.35179165	0.3857571	0.20985812	0.91981506	-0.6958112	-0.21943903	0.5380844	-0.47528678	0.32750836	0.36356592	1.5195541	0.43115076	0.82175756	0.09738906	0.48168418	0.8205511	0.3164913	-0.20575294	0.51307225	0.67133296	0.17554183	-0.04024382	0.23763981	-0.2859364	0.16131054	-0.6498567	0.02366998	-0.4809397	-0.3890567	0.12971357	0.093606055	0.68369365	-0.5625988	0.31313926	0.6286133	0.23322815	0.2581177	-0.01722079	-0.22893654	-0.29779556	-0.19078915	-0.47430277	-0.040705033	-0.47164765	0.28869286	-1.0794199	0.38458464	-0.054471165	-0.16441056	-0.6245518	0.47475842	-0.43425965	-0.374347	-0.45873395	-0.51741004	0.47150248	0.14668207	0.5020938	-1.0518411	-0.478519	0.44693634	0.47093228	0.41910157	0.588155	1.2812334	0.30885807	-0.4061123	-0.15653308	-0.18601725	-0.02813211	0.00267726	0.15873249	0.51682407	-0.18845406	-0.63220066	0.49723896	-0.78229344	-0.4727926	9.6792355e-06	-0.51172507	-0.49751392	0.841646	0.89961904	0.5483175	-0.81973773	0.16141184	-0.14725222	-0.50929874	-0.7243288	-0.03428065	-0.016701663	-0.021733515	-0.45164782	0.65637326	-0.03206353	0.34416977	0.20759705	0.18590507	0.4025699	-0.29831576	0.5121024	1.0480896	0.8261076	0.24336423	-0.47459343	-0.23573874	0.70572	-0.56464	-0.29901794	0.27234277	-0.69677615	0.10687191	0.075439654	-0.23816328	-0.9991388	0.9152697	-0.74776095	0.29797477	-1.3267442	-0.39135474	-0.20745642	-0.5318968	-0.026252005	-0.21147534	-0.63578784	0.81019044	-0.6475794	-0.003102949	0.104999304	0.53365093	0.42831805	-0.119118705	0.7563827	0.5138664	0.024757693	-0.3893443	0.10901451	0.31640616	0.38467777	0.014042785	-0.8456283	0.15027718	0.69347537	-0.22218731	0.51978135	0.47473356	-0.45387137	-0.32805443	0.03641504	0.6708665	1.2367439	-0.66793096	0.10192689	-0.0044527557	-0.3706731	-0.35170245	1.0306492	-0.63672185	-0.29425177	0.27713004	-0.1347597	0.0041391086	-0.10913583	-0.3611389	0.084551066	0.9123278	0.025733478	0.026910627	-0.18751222	0.19456854	-0.217884	-0.14438567	0.11239481	-0.12744622	-0.31484586	0.6527781	-0.67858243	0.67696846	0.64295435	-0.2025559	-0.31833974	0.38870752	-0.43791312	0.7641648	-0.53995603	-0.5829843	-0.17895636	0.9691858	-0.27861875	-0.6349899	-0.8543658	0.88899726	-0.43585995	-0.14761198	0.11837004	-0.18500522	0.29895705	-0.042018853	-0.17276116	1.1914002	-0.08676861	0.6946172	0.69878894	-0.07632466	0.6799999	-0.8197667	-0.70526814	-1.0580081	0.271134	-0.4545208	0.62823766	0.5885922	-0.9812137	-0.6317598	0.10329081	0.25082654	-0.47414535	0.3031436	0.010790518	-0.3931918	0.2950659	-0.010844922	-0.12942381	1.2605367	0.6597439	-0.5681691	-0.6865289	0.06022966	-0.81752545	0.559718	0.15804993	0.15621924	-0.4786262	-0.14283104	-0.5119588	0.32782462	-0.64040524	0.45820194	0.28945184	-0.71913797	-0.0065052416	0.34040365	-0.220575	0.23801087	-0.82545465	0.0996688	-0.17874719	0.9893671	0.08032119	0.3456157	-0.20251694	0.016934013	-0.954513	-0.13730638	-0.44579077	-0.43738177	0.5307361	0.011708573	0.42062908	-0.53830546	-0.16902542	-0.099282846	-0.4238132	0.42096257	0.19587019	-0.74439794	0.42021412	0.14764094	-0.35258707	-0.94736654	0.549888	0.34280452	-0.4948337	-0.3826801	0.2470546	0.86586285	0.0038057081	-0.04408684	0.050885327	0.14450079	-0.5378925	-0.09524592	0.2439741	1.317626	0.31473017	0.7264819	-0.9039092	-0.795739	0.44485873	0.40109816	0.6321425	0.13810864	0.49664316	0.6668435	1.2473363	-0.1479589	-0.65914774	0.4216139	-0.48326167	-0.8854028	-0.44870946	-0.35346138	-0.18667398	-0.117568165	0.87583196	0.93045056	-0.14580405	-0.61105907	-0.9874007	0.51411	0.118585244	0.12577415	0.35853156	0.83716303	0.40993363	-0.675852	0.01564663	0.33063564	0.6872694	-0.19264072	-0.65663826	0.70142734	0.7563076	-0.3768191	0.071769156	-0.13928056	0.4280409	0.15504976	-0.09241603	-0.5905211	0.011068238	-0.07774678	0.15963307	-0.05644959	0.41291463	-1.116228	-0.029905787	0.18789522	-0.24890593	0.4036888	0.7279558	0.20753054	-0.3163801	-0.15430005	0.28329295	-0.18900447	-0.20520136	0.722604	-0.37152588	0.30519685	0.49891376	-0.5091883	-0.31003982	0.55063516	-0.31034374	-0.76342666	0.33300123	-0.24003941	0.11538619	-0.43920922	0.6831588	0.04290984	-0.4220201	-0.09648364	-1.2453008	-0.4787221	-0.34245753	0.094083935	0.17556864	0.09319185	0.06309887	-0.2619885	-0.44472796	-0.3971716	-1.0029801	-0.8351201	0.35469675	0.33745912	0.6399992	-0.4923074	-0.85979354	0.42931893	0.23145993	-0.8854635	-0.6073274	-0.9805274	0.6411897	0.55605894	-0.4920085	0.49709845	0.2755907	-1.0299579	-0.9349484	1.1703154	0.1521453	-0.6550631	0.4412309	-0.028240649	0.2527571	-0.27847436	0.1629893	-0.2642691	-1.309024	0.09955319	-0.4511831	-0.714783	0.57370776	0.63949865	-0.20027336	-0.58652383	-0.2590868	0.018499352	-0.035942156	-0.07412159	0.6243329	0.2493296	0.12104936	0.654262	-0.16901559	-0.31764778	-1.0865384	0.004474489	-0.25939256	-0.17199019	0.34620225	0.25641587	-0.0517086	0.5343095	-0.010321213	-0.5993305	-0.32238257	0.16234666	-0.26097494	0.27123636	-0.13200468	1.4186268	-0.21756953	-0.35000843	0.34229586	0.6740643	-0.71623707	0.07040401	-1.4414048	0.1809085	-0.2362392	0.23616609	0.03631348	0.43676832	0.12721206	-0.26269	0.39814273	0.5658093	0.15506846	0.2353935	-0.11931148	-0.64256275	0.7168541	0.0867413	-0.04116314	-0.020229865	-0.9182173	-0.26302722	-0.56137705	0.009300116	0.05254314	-0.5212435	1.2116631	-0.21828198	0.28575307	-1.5762565	-0.86972463	0.08325255	0.2011447	0.27091783	-0.20838442	-0.26502866	-0.22845437	0.4189625	-0.16105826	-0.8112674	-0.49037984	-0.6500569	1.1856126	0.12200175	0.77465403	0.38319108	-0.5569438	-0.14162238	-0.08165528	0.39123154	0.7404766	0.663289	1.0236845	0.5065596	-0.34511897	0.46664783	0.06761079	-0.5999095	-0.1843884	0.7789881	0.826293	-0.4048109	-0.3401022	0.83475405	0.20678605	-0.19430134	0.64040977	0.02329772	1.2112828	0.7024736	0.42221648	-0.17841572	-0.009485862	-0.07133895	-0.008429477	-0.90151566	0.09924341	-0.2502777	-0.52856106	0.50443393	-0.28705812	-0.017071923	-0.4573036	0.08809826	-0.6300558	-0.18593636	0.1626674	0.17510512	-0.039348885	0.014515046	-0.13298184	0.17215154	-0.033948127	-0.29692763	-0.6207516	0.50076044	-0.09563321	0.30294558	-0.5199935	0.24002172	-0.89628094	-0.062839	-1.2256758	0.6999016	-0.07421429	-0.1507842	0.44097823	0.17427441	0.339473	0.17380737	-0.88867915	0.40699542	0.12267798	0.14002913	0.9782079	0.1073585	0.88732696	-0.14683004	0.3632422	0.22897291	0.15271264	0.50808674	-0.30312058	0.2831183	-0.6678229	-0.4278155	-0.25814277	0.868674	-0.01366153	-0.26288432	0.023508986	-0.022170676	1.0073265	-0.5710951	-0.8220103	0.27823505	0.15897356	-0.12392402	-0.9738985	0.32207185	-0.124811195	-0.36653367	-0.033055738	1.0931985	-1.1871403	-0.10380467	-0.66147405	0.66773266	0.2566845	1.1101803	0.8607764	-0.8163211	0.24121757	0.07785809	0.61858314	-0.7352042	-0.05346081	0.38093135	0.3590675	-0.4909263	-0.33643922	0.10087179	-0.02202526	0.7634919	-0.02936154	-0.041722566	-0.19906163	0.4215344	-0.38353375	-0.017256953	0.7044524	-0.3682645	0.5721386	1.3468051	-0.081202105	0.9129454	0.083319426	0.14579245	0.79374796	0.5716574	0.033795588	0.016447496	0.22527452	0.23684865	0.17052464	-0.1216864	0.186136	-0.09535647	-0.89436555	0.43048275	0.38406774	0.4543457	-0.832144	0.6443039	0.48967806	0.14158727	-0.31284192	0.07453643	-0.057605065	0.14819185	0.9024775	-0.5649462	-1.2089608	-1.0786326	-0.68372023	0.04930437	-0.069569156	-0.24474406	-0.22046685	0.3184206	-0.0014216511	-0.68076116	-0.39551234	1.0525483	-0.7111268	0.82151294	0.10258718	0.50325686	0.30254242	0.05817425	0.72080547	-0.20201278	0.71568716	0.38704288	-0.5821802	0.114354	-0.08888833	-0.39159402	0.01213192	0.16208999	0.4101726	0.543444	0.9307818	0.24152446	1.398107	0.037442192	0.48617616	0.032979436	0.66952735	0.008629633	-0.011502141	0.33941916	0.14453146	0.037862554	0.42862496	0.02758808	0.4944423	0.92601305	-0.09122597	0.51526487	0.3402972	-0.35890928	-0.24050437	-0.47819522	-0.37198675	-0.69951737	0.7918706	-0.35090858	-0.2757807	-0.25750786	-0.08365824	0.6362011	0.8842212	0.21449214	-0.60558504	-0.22067532	-0.3045385	0.30499804	-0.41276717	0.2801706	0.011264568	-0.27508798	-1.5255502	1.1445307	0.26236257	-1.2463791	0.22962897	0.540688	-0.654575	-0.4942118	0.45382926	-0.08120616	0.04327704	0.3424034	-0.64529705	0.517761	0.28155714	-0.2634419	-0.26403695	-0.07987057	0.54783	-0.33563074	0.7937544	-0.44101682	-0.8051756	-0.021963498	-0.09294952	-0.1555367	0.1740607	-0.7588974	0.043865092	-0.9455948	-0.3150453	-0.5640412	-0.10581833	-0.093834154	0.6799159	-0.10254695	0.4179193	-0.55062807	0.03141848	0.09786819	0.7799517	0.37211427	-0.020769067	-0.20427185	0.15090722	0.04911873	-0.24913052	0.055200502	-0.74382216	0.7337339	0.15454543	0.31779006	-0.39832887	-0.33650947	0.37761092	0.17600887	-0.31290463	-1.3428094	0.5785381	-0.021790499	0.9621219	-0.7908169	-0.25223732	0.7081896	-1.3088872	-0.6458451	-0.6996889	0.09051321	0.7593695	0.17313717	-0.10341935	0.0856439	-0.42169008	0.5951891	0.5999297	0.06571958	-0.109327	-0.22386803	0.54780704	0.0047352184	0.16662367	-0.13082728	-0.1564552	0.52540624	0.9630538	0.2372974	-0.89694595	-0.12376989	-0.49433297	0.33405498	-0.08163688	-0.27493635	-0.7837932	-0.10561511	0.21299022	0.4415458	0.564549	0.33622378	0.29369953	-0.71510595	0.20651208	0.58216566	0.5255521	0.2051678	0.27019668	0.22420427	-0.3994528	-0.44113883	0.08312008	-0.84783363	0.13672006	-0.4471345	-0.19689643	0.22071308	0.6996299	-0.50586796	0.33465642	0.46110567	-0.26180318	0.4755309	0.039790325	0.22914043	0.13271177	-0.7919932	-0.2127432	-0.24469218	0.6753996	-0.0470773	0.19861375	-0.10308439	0.35115856	-0.5038864	-0.22307283	-0.7009608	-0.4492616	0.5146261	-0.104010865	0.28760293	0.17906284	-0.1389266	0.47852975	-0.046947055	-0.00013181102	-0.14730303	0.15732676	0.60513526	0.48703623	0.5769138	0.36699006	-0.28725877	-0.584702	-0.299204	0.05634661	-0.5863407	1.1980236	1.0449601	0.89575833	0.31853813	0.0984039	1.174036	0.068109445	0.748931	-0.54684675	-0.037950173	1.2478253	-0.4862508	0.51066744	-0.61442494	1.0071287	-0.6489534	-0.2751951	0.9285839	-0.34976363	0.8726354	0.24656464	-0.32072926	-0.7182221	-0.27250674	-0.35487422	-0.48690063	-1.5898854	0.4696911	-0.43910015	0.27929708	-0.8015644	0.013313377	0.4637173	0.4031994	0.15359278	-0.42678782	0.32256293	-0.9157714	0.03429935	0.637613	0.56489587	0.31963518	-0.5528977	0.11622152	-0.52952474	-0.0026073698	-0.18234222	-0.14459	-0.16690947	-0.2154773	0.38849938	0.6035628	0.12340437	0.34312448	-0.31564102	0.3979196	0.020169567	-0.11202269	0.79174453	1.1537039	0.29062596
G000830295	0.12431029	-0.12635243	0.5150371	-0.008800717	-0.36202922	-0.07576244	-0.26895335	0.3271964	0.010987803	0.0062540416	0.2191163	0.33541158	-0.045727238	0.24019921	-0.418923	-0.3712808	-0.2720596	0.2176856	-0.0074844826	-0.099803254	-0.36274445	0.14908777	0.07388297	0.1319108	0.018002534	-0.2930887	-0.028022083	0.014846589	-0.22919597	-0.106877685	-0.105232835	-0.18120718	0.429347	-0.52878857	0.061419517	-0.059483483	-0.098138146	0.31094223	0.21275353	0.01271707	-0.47256425	-0.82116127	0.41739887	-0.15772013	0.3567894	0.01278335	-0.082007624	-0.07525468	0.3638502	-0.56024534	0.22759168	0.26568732	-0.233812	0.026946474	-0.82832575	0.05449704	0.4101394	0.33496508	-0.5521892	-0.25151914	0.5320829	-0.22194265	0.34546837	0.28001463	0.008337112	-0.35131454	-0.88428485	-0.01288086	-0.32401448	-0.068360195	-0.088813014	0.014684403	-0.3292963	0.3698075	0.11397773	0.26141354	-0.6530912	-0.30953774	0.3674209	0.26466513	0.18504968	0.25815398	0.43257806	0.32112122	-0.43509334	-0.42237115	-0.44594777	0.5319294	0.56660867	-0.44895494	0.2760558	-0.040436514	-0.14444554	-0.06468098	0.05113353	0.20983139	-0.13670655	0.035340678	0.023503998	0.041840233	0.31032076	-0.44708782	-0.20033003	0.3439688	-0.16752371	0.2522421	0.35750002	1.1215506	-0.04800185	0.84478945	-0.016569186	0.54133934	0.36229473	0.13519847	-0.25041547	0.39281228	0.39714745	0.13790734	0.039219156	0.019529529	-0.103857115	0.06730359	-0.37271714	-0.26807874	-0.49417022	0.029501785	0.06522955	-0.34313536	0.67811334	-0.28228167	0.27464014	-0.6913819	0.08628707	-0.20957865	-0.31630442	-0.34667283	0.17812891	0.20977668	-0.7069898	0.14721873	-0.52047944	-0.032149136	-0.43295982	-0.062295087	0.3695415	0.48376864	-0.61664534	-0.07138415	-0.5110884	-0.41766536	0.17850702	0.048772257	0.3106969	0.06406111	0.34354067	-0.608215	0.1702794	-0.34895512	0.009856725	-0.14741705	0.6694146	0.6140224	-0.3343223	-0.304445	0.086674765	-0.36561128	-0.15533474	-0.44016945	-0.1379504	-0.16724908	-0.11275467	-0.22750922	0.12600209	-0.38421255	-0.20733306	-0.4353949	-0.7775375	-0.43538588	0.7714733	0.43954352	0.5812541	-0.5602461	-0.0014439784	-0.19932167	-0.4423258	-0.567309	-0.0050466377	0.25215727	-0.10952834	-0.33245826	0.41963315	-0.110997304	0.33769044	0.35911614	0.25612375	0.2435709	-0.40844932	0.30461586	0.12502807	0.6275565	0.20256135	-0.2972439	-0.065922454	0.65437347	-0.50355583	-0.35402158	0.24476029	-0.44818014	-0.020188365	-0.13902493	-0.34378406	-0.749289	0.8561942	-0.53782606	0.03838764	-0.6200473	-0.27441174	-0.42166546	-0.82810605	0.014720608	-0.077397585	-0.32922906	0.3668526	0.054728072	-0.27046373	0.045634564	0.52103233	-0.08547662	0.09192228	0.091288105	0.09986438	0.0781263	-0.34071824	0.07275897	0.43200162	0.29447463	-0.12478799	-0.65828884	0.26634875	0.25509596	-0.1647859	0.22208147	0.21236996	-0.13280837	-0.2890607	0.31999713	0.2334879	1.1221027	-0.18374771	0.1150175	0.3183934	-0.31559795	-0.489084	1.0665178	-0.092210956	-0.109254315	0.46110246	-0.07329472	-0.17658192	-0.38930342	0.23113567	0.25233448	0.89308375	0.0056645945	-0.08279991	0.33432457	0.22559692	-0.22835371	0.0032632425	-0.06854071	-0.18442328	-0.6301479	-0.018493433	-0.6725309	-0.18369178	0.40377823	-0.1169596	-0.08467609	0.26201534	-0.47279105	0.4504741	-0.29359666	-0.32925788	0.22461581	0.51641065	-0.49303818	-0.31752473	-0.4643303	0.2728277	-0.116030306	0.43928075	0.20233282	0.3158956	0.32393694	0.07855096	0.11215649	0.3977861	0.00037351064	0.27799514	0.4897685	0.39964846	0.88721055	-0.098765776	0.008462944	-0.37938195	0.5206324	-0.30844715	0.47739485	0.5568866	-0.53908557	-0.49508604	0.15388566	0.22433501	-0.38951993	-0.08509053	0.3021418	-0.013766394	-0.17533986	-0.023528522	-0.5619465	0.7563298	0.60050184	-0.39271885	-0.05781307	-0.10651482	-0.6059409	0.508503	0.188893	-0.10522191	-0.3169596	-0.09917317	-0.96404636	0.37072444	-0.26101482	0.06880717	0.32313436	-0.18660164	-0.29046395	0.14909565	-0.81674206	0.20598017	-0.29656228	0.0070446413	0.19396515	0.59076715	0.18994927	0.43512833	-0.15042976	-0.2952884	-0.54940146	-0.35418496	0.08298486	-0.1768214	0.30993477	-0.052526392	0.62402046	-0.47363576	-0.041208982	-0.004501445	-0.046609133	-0.26666477	0.5185518	-0.8785014	0.5442085	-0.10380478	0.21075028	-0.5955717	0.16157475	0.6142885	-0.30789036	-0.39629334	0.15296572	0.29498196	-0.5063734	0.03675774	0.09569072	0.47719902	0.1322114	0.19325492	0.087385125	1.1062717	0.3631806	0.5819035	-1.131149	-0.6857226	0.30718893	0.23262449	0.20586936	0.57018054	0.1516308	0.26324654	0.5422674	-0.31146815	-0.86711735	0.18372509	-0.24219169	-0.26469964	0.008190767	0.46821773	0.15763135	-0.3606226	0.3782709	0.537915	-0.23977482	-0.33155325	-0.750095	0.09878752	0.08428426	0.051899932	0.21991076	0.21125968	0.07778359	-0.44447592	-0.083314784	0.85490835	0.9224092	-0.2511482	-0.8346717	0.6653109	0.2761339	-0.41240644	0.15220045	0.13297895	-0.339204	0.09580737	-0.36992282	-0.8759954	-0.39348552	-0.6281972	0.31313804	0.20938994	0.1461185	-0.82095575	-0.05087685	0.11022384	-0.15934502	0.11746332	0.30369925	0.09088958	-0.0054173935	-0.007386094	0.24619235	0.22298099	0.0303319	0.81440175	-0.38061097	0.14083405	0.109241396	-0.0615478	-0.10119745	0.3129512	-0.25972563	-0.2869131	-0.027388133	-0.09092088	0.114316985	-0.59239465	0.43066576	0.15784022	-0.44826287	-0.014701357	-0.77617353	0.07991081	-0.18625529	-0.1720985	0.117289916	-0.08143689	-0.26938093	-0.30632284	-0.44482267	-0.28895026	-0.91526216	-0.34298292	0.38583875	0.24286196	0.21684264	-0.53864205	-0.26476225	0.423076	-0.15482052	-0.5709015	-0.27069968	-0.6125052	0.50484025	0.34360525	-0.43221498	0.6799353	0.6869209	-0.8525141	-0.5358883	1.1906912	0.089739986	-0.2918126	0.34611022	0.12759688	0.35704696	0.16858704	0.077432655	-0.4550303	-0.8128431	0.54218435	-0.06303953	-0.7629506	0.46704227	0.9869904	-0.17615601	-0.17136641	-0.3088371	0.38263977	0.38995028	0.20906824	0.55566424	0.40217373	0.20316584	0.50651044	-0.17409891	-0.338703	-0.7579065	-0.5992972	-0.11116105	0.30046025	-0.34512326	0.1757524	0.080115624	0.20113805	-0.48131737	-0.09091179	-0.54086107	0.20710383	-0.11451082	0.16966717	-0.06471902	0.7433991	-0.11907026	-0.3912111	0.18796521	0.3453292	-0.49024138	-0.41327915	-0.75601226	0.2290205	-0.46752065	0.4825901	-0.25828826	0.69274026	0.3699655	-0.20080356	0.06383906	0.14813262	0.17977424	0.058095828	0.1394805	-0.270641	0.20395704	-0.34167773	-0.14945754	-0.23164481	-0.3634655	-0.08010647	-0.26255667	-0.44555187	-0.33385485	-0.70702213	0.7249342	-0.35473725	-0.05701088	-0.91170204	-0.38789403	0.65676224	0.3294121	-0.2592171	-0.17207295	0.115978524	-0.20074512	0.15689692	-0.07035975	-0.5836657	-0.51663554	-0.2896935	0.6531127	-0.2534318	0.42903107	0.078820564	-0.30291104	0.55760795	-0.030951342	0.2246016	0.32445768	-0.040971607	0.40977162	0.7436599	-0.06709357	0.63806474	-0.027920166	-0.5264152	0.026618658	0.5666207	0.6851167	-0.20620988	-0.48081884	0.50615335	-0.08281099	-0.71602184	0.1122878	-0.17872217	0.8560581	0.52204204	0.3626187	-0.43933964	-0.07275041	0.058192343	0.57583743	-0.8059356	-0.436678	-0.4511618	-0.45965567	-0.13251351	-0.3708595	-0.14540763	-0.32301906	0.33601815	0.18557408	-0.16174795	0.23692161	0.27573544	-0.36472768	-0.039574124	0.28615132	-0.40377292	0.18101685	-0.23237143	-0.6397194	0.31208283	-0.54617774	0.10141094	-0.36081618	0.014388699	-0.83904487	-0.02332509	-0.37138337	0.47250324	-0.09271601	-0.25835043	0.44043165	0.22477211	0.40182477	-0.19057132	-0.58573383	0.33650205	0.123442456	-0.002015056	0.44336298	0.16063206	0.32981393	-0.1377501	0.032902725	0.1008845	0.20842831	0.39498603	-0.23700194	0.60055757	-0.3722852	-0.40344205	-0.2433734	0.30935338	0.07149625	-0.37532946	-0.007330144	0.116288885	0.57201165	-0.56896603	-0.66302186	0.04295983	0.15816487	-0.16640517	-0.30886388	0.18414243	-0.4307548	-0.1070742	-0.059880354	0.4316069	-0.433596	0.13245381	-0.24720977	0.6667669	0.6246902	0.52327734	0.5531744	-1.0488528	0.608647	0.12704085	0.72111577	-0.26243377	-0.19179077	0.06310306	0.2663182	-0.4738847	-0.14833605	-0.18451422	0.10024757	0.33068195	0.16037342	-0.27417177	-0.37477764	0.057823762	-0.03210191	0.0755715	0.48805597	-0.5745074	0.1843673	0.94418037	-0.30478463	0.44186312	0.01938891	-0.46305808	0.009163711	0.5279874	-0.3286569	0.17236273	0.04960274	0.18995085	-0.010554014	0.090278596	0.02052102	-0.08114799	-0.5340675	0.5617897	0.4647077	0.0570339	-0.82514274	0.41744933	0.07868338	0.47219932	-0.5227062	-0.11791824	0.11498276	-0.046556816	0.3923801	0.13287981	-0.042721022	-0.68871707	-0.42594334	0.42261553	-0.13912302	0.44411683	-0.10274333	0.19728255	0.032503016	-0.82581246	-0.21714103	0.62810975	-0.48140755	0.40600076	0.29372755	0.108104855	0.1956466	0.097787365	0.074841075	0.3119075	0.35754082	0.3762835	-0.07720393	0.3713406	-0.12514465	-0.43041262	0.033592276	0.39129427	0.6662264	-0.14725001	0.5340607	0.044608865	0.86274374	0.25076982	0.676582	0.02912259	0.7367572	0.2063933	0.27455008	0.49017146	-0.48607737	0.12741739	-0.0015694629	-0.0015921481	0.84092724	0.6937728	0.103783146	0.71032786	0.59603137	-0.1658981	-0.5568416	-0.4988192	-1.1763378	-1.0711019	0.5381543	0.12178842	0.02012414	-0.13045202	-0.015714565	0.16841123	0.5948994	0.10100489	-0.19321385	-0.15065087	-0.5680417	0.38709408	-0.008156601	0.661777	-0.30920365	-0.20655571	-0.62562627	0.5665648	0.2431085	-0.39985323	0.32639164	0.28101403	-0.15620764	0.17739742	0.28063828	0.15019962	0.26141778	0.5848443	-0.0020035412	0.18582138	0.116333164	-0.2550935	-0.21821243	-0.2542385	0.48909715	-0.4480935	0.41331017	-0.11492331	-0.5717753	0.2821475	-0.24219222	-0.38399628	0.3854486	-0.23434201	0.4429711	-0.42233545	-0.31977767	-0.006383585	0.051455256	-0.06606974	0.34796038	0.03602212	0.14141206	-0.56152904	-0.08497692	-0.17280099	0.5218157	0.25184706	-0.39107436	-0.017440759	0.022023546	0.087871104	0.10361195	0.00051636994	-0.74446255	0.74301505	-0.012991522	0.17621145	-0.62838215	0.0660907	0.38493493	0.11569623	-0.6183746	-1.0119107	0.57792807	0.29298794	1.0874379	0.081977	-0.32782462	0.36509413	-1.1707604	-0.3479118	-0.44395137	0.1438611	0.42210415	0.087970465	-0.006554248	0.010417743	0.09986467	0.22564141	0.16207689	0.23356993	-0.25467688	0.12277495	0.35311505	-0.06503752	0.05550488	-0.4497216	-0.13691176	0.1886049	0.78489697	-0.02370412	-0.35938442	0.0053036306	-0.05343075	0.059156142	-0.11514841	-0.4105528	-0.6106944	-0.17855994	0.067672096	0.37288553	0.1857576	-0.43942982	0.13384244	-0.6311396	0.31717145	0.5731786	0.58790475	-0.07245929	0.4756111	-0.15091953	0.2241976	-0.35016415	-0.1912364	-0.35343677	0.19996455	-0.18149965	-0.06940595	0.31404763	0.4105944	0.49954164	0.49351072	0.15906091	-0.09689698	0.31730053	0.082720846	0.089785144	0.00026050117	-0.61552477	-0.061759196	-0.69619715	0.04685824	-0.34104222	0.0931804	-0.56893265	0.18921542	-0.27466494	0.10820271	-0.272105	-0.11956575	-0.08349625	0.08789702	0.07688335	-0.052645266	-0.22099806	0.27512693	-0.045228206	-0.17463198	-0.3078556	-0.23000231	0.5629261	0.5369524	0.50819606	0.3287219	0.31406176	-0.07830408	-0.71727216	0.010012664	0.2518349	0.5133683	0.6998445	0.7381194	0.27849296	0.0638589	0.72292286	0.010585541	0.61412394	-0.6377139	-0.3989532	0.99027884	-0.19512028	-0.1989029	-0.5934967	0.44948304	-0.2342906	0.11075306	0.7238236	0.24701066	0.29088953	-0.3303439	-0.13825661	0.20279792	0.14372346	-0.12054738	-0.5466587	-0.6755665	0.11500058	-0.17663717	0.2682194	-0.5536502	-0.06066958	0.5735009	0.29582623	0.061794784	-0.3231906	0.13424625	-0.5441417	0.19764519	0.14963564	0.35255027	0.41774556	-0.36786962	0.6174704	-0.50316095	0.18874907	-0.22000007	0.08648877	0.25301117	0.18170851	0.2640819	0.29890293	-0.3586733	-0.085815705	-0.42327943	0.36451864	0.099703096	0.28184167	0.46115547	0.9042007	0.2684216
