G000830275	0.7234982	0.13027021	0.6441103	-0.07621064	-0.5709435	-0.48370042	0.99612826	0.77387184	-0.5714508	0.77515435	0.3856389	0.43436176	-0.1037419	0.21040207	-0.13733695	-0.4852736	0.45540494	-0.08624321	1.1751398	0.075368375	0.060580738	-0.096729375	0.9786376	-0.1734112	-0.4665137	-0.4370242	0.73625606	0.10313661	0.3791167	0.47932842	-0.28591138	-0.19314253	-0.52902794	0.32871225	-0.46213543	-0.53618187	-0.28400195	-0.27815396	-0.18950123	-0.46002322	0.39936975	0.68662393	-0.7090323	0.23360234	0.42569855	0.7919853	-0.047869466	0.46652055	-0.45295048	0.34359506	0.22282624	0.29591534	-0.63163555	0.5244208	-0.20268637	0.38374433	0.11373861	-0.34835982	-0.17089415	-0.66172725	-0.15930638	-0.658635	0.32596043	0.3352842	0.52588964	0.58897555	-0.40657136	-0.120191835	0.40535304	-0.7885938	-0.30637848	-0.15956627	0.36710852	0.36002627	-0.24350058	0.3410145	-0.02356523	-1.05375	-0.049935125	0.45960376	-0.04907684	-0.03363505	-0.1641444	-1.0985681	-0.14208868	-0.4949647	0.031630453	-0.08800874	0.17444205	0.340232	-0.6456469	-0.049896784	-0.8077162	-0.53734225	0.45530435	-0.41337216	0.19834751	0.61777407	0.32281238	-0.84617925	0.5069108	-0.56517905	-0.023328157	-0.37204415	0.33717093	0.53164494	0.64885676	-0.32725126	0.065339975	-0.063021034	0.38185033	-0.103384554	-0.37324512	0.18952124	0.5871381	-0.27686182	-0.3246434	-0.7097491	0.8234304	-0.20166369	-0.031766318	0.27907732	0.09083614	-0.47379273	-0.37487924	-0.67786014	0.7030836	0.8968446	-0.56127924	0.11190171	0.035621613	-0.055666596	1.1238992	0.10505268	0.33895594	-0.43503603	0.08489283	-0.5457738	0.11847239	0.7000075	0.11129034	-0.1868728	-0.5085919	-0.74087393	-0.07020918	-0.6180603	0.3531025	0.28160164	-0.1853998	0.8420641	-0.2784147	0.3164571	0.31833726	-0.23986644	0.69244695	0.029348722	0.09540364	0.44562602	0.6747481	0.10701367	0.30997354	-0.18285665	0.08980441	0.08988585	-0.08088728	0.5884632	0.12445364	0.2513201	0.67727524	-0.35055968	-0.6004158	0.53737986	0.19286968	0.20229974	-0.2961874	-0.20907983	-0.019460421	-0.36901695	-0.46846396	-0.42598045	-0.08435203	0.056578927	0.08324562	0.21286926	-0.2175465	0.3484174	0.4325495	-0.11137808	-0.6357976	0.60468775	-0.28135282	-0.8543885	0.051398244	-0.64867634	0.44277647	-0.7518091	-0.2268873	-0.5650522	-0.365504	0.41874328	-0.2701574	0.08215286	-0.92912596	0.26805496	-0.41283017	0.48384643	-0.073592335	-0.5501707	0.20911212	-0.3657569	-0.100542784	-0.33720845	0.11671669	0.13096395	-1.0745093	0.2629936	0.49922386	0.108089946	0.90820855	0.9881611	0.25828323	-0.35376608	-0.5377172	0.24415776	0.030881582	-0.55165064	-0.7402489	0.31196246	0.4051233	0.048065364	0.6443814	0.630489	-0.77391267	-0.24399717	0.099546164	-0.32015008	-1.1392747	0.3272698	0.060602568	0.66687375	0.15065113	-0.3246471	-0.37918788	0.3701977	0.3514159	0.16079608	-0.51076794	-0.021815868	-0.4384434	0.91967213	0.30356494	-0.42184827	0.0132480655	-0.8820555	0.1537971	0.05121986	-0.07448857	-0.24672641	0.4392535	-0.3499148	0.29086843	-0.04959189	0.43415123	-0.46267894	-0.6010708	-0.3413267	-0.33892727	-0.53071487	-0.09416473	-0.38524047	0.9404001	0.5706861	-0.5778553	1.0318683	-0.08933545	0.6195256	0.24085368	-0.06384904	-0.132061	0.013561206	0.32726732	-0.57394785	0.7175418	0.13514525	-0.28327787	-0.1036734	-0.083570994	0.39662224	0.50391936	-0.42348188	0.2539705	-0.6531855	-0.3051235	-0.5560285	0.53101224	-0.01655086	-0.0906237	-0.503769	0.02605564	-0.5220801	0.27578443	0.28440762	-0.61435026	-0.55934197	0.24613644	-0.59591717	0.70327145	0.42116222	-0.15278894	-0.15419613	0.0132591445	-0.14104137	-0.5056667	0.1489612	0.16174516	-0.991768	0.2431089	-0.30837232	0.7470263	-0.4264302	0.6639798	-0.49866053	0.47476205	0.2893206	0.21157807	0.5193253	-0.042313017	0.100223735	0.30043006	0.54998523	0.5611207	0.19218388	0.2971239	-0.1595899	-0.940053	-0.65662473	-0.175444	-0.17158836	0.27495968	-0.25216055	-0.16694897	-0.5284448	0.6186592	-0.4459037	1.1014905	-0.41836163	-0.3915725	0.11901538	-0.13818607	-0.30377996	0.45414484	0.13649665	0.3727888	0.17151953	0.022275163	0.24257828	0.03714277	0.21369046	-0.17123102	0.5756215	0.2632107	-0.02050105	-1.2585701	-0.31703186	0.17418788	0.40146726	0.090068	-0.031332128	0.54343253	0.23463191	0.029534092	-1.0422355	-0.035031445	-0.50019896	-0.184814	-0.04926873	-0.1889911	0.31763002	0.55278903	-0.15163755	0.32297593	0.14523178	0.071882114	1.0452578	0.64358824	-0.36600378	-1.0534812	0.41757488	0.027907373	-0.14611128	-0.098031275	-0.2681611	0.571958	-0.27591068	-0.09230549	0.98375475	0.5793044	0.47119382	-0.101126894	0.06093011	-0.045359023	0.32142478	0.4342355	0.17236789	-0.16606276	0.20543393	0.015945366	0.30811977	0.24762197	0.486966	-0.17285347	-0.022460418	-0.09527062	0.4297517	-0.17005329	-0.024046103	0.43310747	-0.18631192	-0.44866264	0.34089637	0.46538	0.49699643	1.1923734	-0.6025983	0.24840884	-0.2554063	0.43619928	-0.29926252	-0.25972015	-0.42873898	-0.65876675	-0.35376933	-0.66487193	-0.24454477	0.6935294	-1.2454091	0.24837291	-0.23532777	0.37852657	0.6535096	0.10915804	0.3289542	-1.0317272	-0.18690312	0.45276546	-0.32609358	0.19685696	0.10814143	-0.16405171	-0.08178413	0.06561844	-0.32509705	0.1367568	0.09956074	-0.03334275	0.9555671	0.19267839	-0.93237704	-0.8082689	0.5077458	-0.0069960635	0.175273	0.43667272	-0.23599084	0.048941	0.6480181	-0.14115712	0.29322478	-0.01826376	-0.040026017	0.05680912	-0.55365384	0.24660623	0.76218814	-0.4937681	0.46232858	0.083256155	0.048893876	-0.37197185	0.08799702	-0.32541835	-0.26614597	-0.4170491	-0.08259463	0.8161859	-0.54456574	0.39249527	-0.054644324	0.03533549	-0.14230785	-0.22248043	-0.37604174	-0.20430477	-0.13255607	0.38328898	-0.27626973	0.4908105	-0.8730564	0.338318	-0.07026474	-0.23574986	0.4464645	0.81836635	-0.23406924	-0.099016935	-0.27269208	0.47252217	-0.43347183	0.8137754	0.15442872	-0.12531026	0.14015947	0.3941429	0.24562795	0.6617635	-0.23580873	0.55028844	0.14646529	-0.19472662	0.6776762	-0.34883866	0.29624745	0.81865495	0.08135849	0.35092956	-0.0016367044	0.9751997	0.16622823	0.39027905	0.020685114	-0.9405219	0.1663844	-0.006400859	-0.11118042	-0.5853644	-0.09048257	0.24190204	0.17018597	-0.78923553	-1.3913974	0.36241904	-0.028787944	0.32378158	-0.83236253	0.026385123	0.05838765	0.24726361	-0.40541106	0.28944564	0.0015535522	0.14937216	0.46471804	-0.4815265	0.16910343	0.3694998	-0.6882758	-0.45537233	0.0683381	0.5106656	-0.21203136	-0.30367088	-0.32047382	0.28950432	-0.30082196	-0.2638783	0.2497425	0.14674215	-0.17706728	-0.0410331	0.40750974	-0.5583061	-0.1668453	0.355945	0.07473871	0.23774281	-0.4588324	-0.093000844	0.29741696	-0.1368195	0.7172886	-0.542214	-0.45158955	-0.36194533	-0.8251522	0.67708004	-0.071967274	-0.2736597	0.72649115	-0.11184856	-0.7090821	-0.07500257	-0.17731638	0.2803171	0.2222893	-0.37213403	-0.40619063	0.016850656	0.022421902	-0.23706734	-0.42832768	-0.5111605	-0.6342247	0.61098135	-0.41561177	0.5701908	0.23177955	-0.1831006	-0.15026803	-0.21153538	-0.37756225	0.2248327	-0.25887853	-1.0516093	-0.02226928	-0.5682613	0.30102342	0.43552324	0.70936626	0.05309069	-0.1460086	-0.97955406	-0.407141	0.47967777	0.032177143	-0.23354825	-0.18753286	0.67054045	0.18782617	0.55014014	0.51326793	0.5465189	-0.39555573	0.24372138	-0.16833493	0.40669343	0.30296576	-0.014507698	-0.2707746	-0.27947783	0.8977154	0.21795268	0.21093115	0.32723317	0.29624876	-0.41467008	-0.18889943	0.05657079	0.72856456	0.12515767	-0.39756846	0.63911486	0.18181984	0.117584325	-0.16167276	0.49726135	0.5799079	-0.33529994	0.53012943	0.6322977	0.084686324	0.19346319	0.5746611	-0.1921103	-0.012188157	0.12368387	0.24861766	0.25469753	0.69296324	-0.5941304	0.8031994	-0.52782506	0.13039134	0.0759509	0.08807883	0.5753074	0.51954705	0.5507515	0.6543415	0.3796686	0.37479144	0.4303282	0.0634817	0.266191	0.46409264	-0.7354247	-0.26583424	0.43590212	0.30577797	-0.2988313	1.0246049	-0.11689451	-0.37809378	0.11746936	0.36736134	-0.04091324	-0.47291172	0.5298268	0.17667954	-0.018116599	-0.45902652	-0.18358941	0.43856287	-0.2772706	-0.27227998	-0.55948997	0.30575758	-0.4932308	0.4220668	-0.25629038	0.5525858	-0.36228314	-0.29348275	-0.5083714	0.5013141	-0.63367116	-0.602913	0.79333144	0.028247114	-0.071395464	-0.19325864	-0.45457998	-0.102526784	0.66834736	-0.501312	0.44892308	0.039155178	0.29508555	0.68910545	-0.16472624	-0.7788246	-0.1760205	0.3195514	0.0011332165	-0.08064814	0.25945958	0.12826541	-0.1011579	-0.24626596	0.0637483	0.16552512	-0.7059472	-0.27060685	0.069094524	0.3563741	-0.23495878	0.6837749	0.08144136	0.049589958	0.30131888	0.23934194	-0.8901025	0.19991902	-0.539827	-0.4833511	0.27131447	0.31643614	0.040430102	-0.7892838	0.16372624	0.09938356	0.08281193	-0.5419919	0.86175245	0.3518445	-0.03903626	0.6907922	-0.6110331	-0.5923251	0.5024067	0.18475503	-1.1528945	0.2687257	-0.1960234	0.56762075	0.11504314	0.28443623	-0.36494204	-0.9125812	-0.2771686	0.02155845	0.6328816	0.15961507	0.3987219	-0.020469287	-0.006802695	-0.19036536	0.2891363	-0.1846135	0.20278974	-0.5704672	-0.6860243	-0.09796583	-0.010914637	0.850103	0.77211654	0.04763625	0.4330641	0.48318902	0.3561086	-0.49057877	-0.22041416	-0.29117584	0.24026966	1.1327051	0.13209762	0.8514201	0.26601112	-0.2724724	-0.009615382	-0.6057355	-0.23432082	0.044177644	0.3246237	-0.18053201	-0.113632604	-0.20758201	0.5819075	0.49710155	0.10265201	0.0068216417	0.17789567	0.67291516	-0.19093758	0.049529985	0.42046294	-0.2327922	0.12916622	-0.9687866	0.3878085	0.35807773	-0.1560569	0.3489424	-0.24624115	0.13661109	0.40705755	-0.48447213	0.59933263	-0.02453764	1.0660596	0.36094123	-0.49909618	-0.61544037	0.10179514	0.63219196	0.48540655	0.028743075	0.1577681	0.19234897	0.024440102	0.19642355	0.22122544	-0.4511526	-0.7995615	0.21705815	-0.741685	0.036059514	0.40475664	0.15324113	0.07006472	-0.40486744	-0.48142478	0.17106819	-0.3691209	0.25293234	0.22198115	0.48401684	0.7706174	-0.49068043	-0.15407921	0.3414869	-0.29572958	0.11544971	0.032108717	-0.25476426	0.16657326	-0.54298675	-0.2860376	-0.008815965	0.3051705	-0.45882222	-0.30225646	0.38867497	-0.03636343	0.6007322	-0.24873058	0.40105537	-0.054778837	0.28923485	-0.69988364	0.047000118	-0.29183182	-0.83931875	0.2786886	-0.5223408	-0.15023302	0.48850426	0.52852243	0.22928903	0.3844162	0.7750566	-0.04756783	0.091542244	0.14680398	0.09197517	-0.10778332	0.3125066	0.01119752	-0.12660237	0.23044842	-0.57742643	-0.8464081	0.69486964	-0.16811329	0.19912633	-0.29679847	0.61452353	0.0064879553	-0.12481183	0.32544667	-0.42997664	-0.79453534	0.77622384	-0.3552034	0.038350098	-0.6589966	0.5691946	1.1840833	0.0022786558	-0.6708037	-0.580513	-0.12203119	0.339263	0.88398397	0.19543016	-0.20182268	-0.34042832	0.29157203	0.7845971	0.18747309	-0.12701735	0.438097	-0.27868822	0.006103305	-0.21885501	-0.012797765	-0.18785039	0.10925761	-0.51952887	0.13815106	-0.2674976	0.09947078	-0.28680527	-0.81362945	-0.37886956	-0.32000908	-0.124191865	0.46079317	0.19710729	0.05955919	0.6411286	-0.29874277	-0.72688794	-1.0466806	-0.2570336	-0.18498486	-0.33204743	0.13681188	-0.4272865	-0.9536335	0.70252883	-0.05437299	-0.4622919	0.54103714	0.3734956	0.35774872	0.03819962	-0.25841564	-0.043372862	-0.0967697	-0.23567928	0.36751166	0.5457674	-0.020472674	-0.10665186	0.056541666	0.26541597	0.7270374	-1.0031735	-0.6483879	0.04881472	-0.62064916	-0.23744637	0.1245061	0.060739838	-0.34400392	-0.11253241	0.42370483	-0.14458518	0.3762944	-0.94030756	0.8078871	-0.45625496	0.6685586	-0.19149043	0.4679471	0.72539085	-0.0063690674	-0.2344735	-0.4637773	-0.38458052	0.0116590075	0.46731293	0.15348013	0.09116584	-0.6137931	-0.39401278	-0.2993973	0.11287597	0.22962502	0.4153944	0.18721277	-0.11020045	-0.14954075	0.53019553
G000402355	0.46140152	0.1542053	0.86770093	-0.2889619	-0.27808428	-0.34014276	0.8127832	0.7731687	-0.333128	0.3651324	0.2558279	0.3710301	0.06184621	0.15909678	-0.1579266	-0.5676547	0.47690573	0.11199701	1.0475794	-0.18682338	-0.12767029	-0.16343212	0.8291668	-0.08519112	-0.57765424	-0.29491234	0.7436236	0.08911822	0.81593144	0.56771636	-0.2099163	-0.037729204	-0.70212674	-0.0034311041	-0.026614686	-0.37368304	-0.1172745	-0.28722203	-0.05698438	-0.4275787	0.15954635	0.2779377	-0.3702104	0.31231275	0.580222	0.65808976	0.18930711	0.31187198	-0.22892635	0.5998185	0.49343666	0.53218496	-0.6214999	0.45828313	-0.073761635	0.52025497	0.28102025	-0.20988032	-0.22212765	-0.3110769	-0.3724289	-0.5341378	0.057999287	0.32910267	0.69764364	0.5000293	-0.21954562	0.11472056	0.22261402	-0.9682668	-0.22055723	-0.008093221	0.185445	0.21133533	-0.6652457	0.09216502	0.026538352	-0.56637055	-0.15784632	0.21212529	-0.26537448	-0.28864133	-0.43767437	-1.07848	0.026094493	-0.33697793	0.0821764	-0.0035953578	0.1887262	0.1606372	-0.4344161	0.025421085	-0.86279815	-0.524603	0.2411809	-0.5060805	-0.043007724	0.92649335	0.2627526	-0.8831525	-0.029966205	-0.38149926	0.2827332	-0.40377098	0.011041004	0.41297075	0.6506143	-0.044875856	0.14166433	-0.2205756	-0.2876931	0.11090488	-0.34024218	0.2793029	0.81093687	-0.07184239	-0.32414272	-0.60777736	0.60939234	-0.077056386	0.055635743	0.18997863	0.25293764	-0.2807938	-0.28615063	-0.8007592	0.4866492	0.70090675	-0.19175065	0.018742805	-0.26959324	-0.23924729	1.0541474	0.046663344	0.41775942	-0.571496	-0.027312657	-0.3647061	0.36290535	0.63564545	0.21910901	-0.21259059	-0.4159034	-0.47906846	-0.007690767	-0.66428775	0.46052092	0.07863881	0.25829947	0.5602028	0.1415053	0.15232556	0.48724622	0.06768203	0.4415383	-0.083593115	-0.07723959	0.36800602	0.44811735	0.079104334	-0.128814	-0.2981626	0.13621981	-0.36210707	-0.05161655	0.31559172	0.025743254	0.25179005	0.7092881	-0.4733414	-0.4626242	0.4565527	-0.074251376	-0.12684423	-0.6847695	-0.42967293	0.3214623	-0.25878602	-0.09311599	-0.29553705	0.04376588	0.35830763	-0.06846318	0.19062433	-0.12170008	0.1998692	0.12585475	-0.0011288133	-0.60717624	0.34055984	-0.35736716	-0.4897975	-0.008556786	-0.63448715	0.55896324	-0.67432654	-0.2321714	-0.38505337	-0.15449286	0.23072532	-0.16558287	0.1401291	-0.81838566	-0.006239987	-0.25974357	0.3759783	0.08849743	-0.43471193	0.16821526	-0.08101491	-0.31682628	-0.18757634	0.5164761	-0.1284719	-0.9374092	-0.0610065	0.30534792	0.14909182	0.88153774	0.66054237	0.3538371	-0.30696538	-0.32837552	0.21308535	0.0047854763	-0.5273679	-0.369486	0.36716416	0.13191514	-0.10510573	0.53326154	0.5569839	-0.7844719	-0.20477581	0.47556728	-0.25018594	-0.8120731	0.15729083	-0.054243453	0.54060185	0.2418262	0.038525667	-0.113384746	0.3718578	0.3933051	0.13664973	-0.46174544	-0.13872601	-0.21198107	0.84835136	0.25141746	-0.41823623	-0.05972609	-0.64189804	-0.16181864	-0.22668406	0.09462908	-0.18484148	0.48799285	-0.021871159	0.35889146	0.12577157	0.4482111	-0.5007125	-0.3051511	-0.14312594	-0.14484093	-0.7810816	0.20306696	-0.068999164	0.69029397	0.28938413	-0.3639358	0.72659886	-0.23410964	0.28337285	0.29090008	-0.18616384	-0.08723881	-0.031283483	0.11218155	-0.5877699	0.7979223	-0.03634742	-0.111257195	-0.1522403	-0.4264574	0.25915298	0.026957994	-0.11439721	0.40583998	-0.7209578	-0.27251032	-0.23987046	0.58015114	-0.24396716	-0.1843065	-0.21220827	0.09940606	-0.26034066	0.4985795	-0.06928454	-0.50920695	-0.21497759	0.05070824	-0.26544848	0.89513856	0.426308	0.24953356	-0.11115219	-0.1015493	-0.06924773	-0.1687074	0.26130894	0.5471609	-0.54622304	0.027415285	-0.2790472	0.5341752	-0.6040424	0.5121462	-0.2702948	0.20221946	0.22399215	0.38311577	0.27633753	0.078112155	-0.06228582	0.51514125	0.19153947	0.50430804	0.2635426	0.4957218	0.04540263	-0.901749	-0.5627887	-0.025747683	-0.052035052	0.5294926	-0.31332108	-0.12447088	-0.57034117	0.5370637	-0.48133737	0.76580656	-0.42447254	-0.57935226	-0.17639057	-0.2512395	-0.116981626	0.3117611	0.0054516178	-0.00025902689	0.1651994	0.16264974	-0.045988664	-0.101374224	0.13841087	-0.038830146	0.47824207	0.55236745	0.20446819	-1.1635602	-0.49152064	0.2414462	0.25231096	0.35461816	0.1812092	0.21859948	-0.054617107	-0.114103235	-1.2838609	0.12196728	-0.43829548	0.11286033	0.0035168761	0.0033205543	0.15089065	0.7045656	-0.24877422	0.29172513	-0.15603888	0.008519173	0.90642166	0.28459784	-0.041742276	-0.6248673	0.60552037	-0.21292062	-0.06855301	-0.14022052	-0.2617379	0.4494237	-0.37924773	-0.15372403	0.7556063	0.34379444	0.19797999	0.32338113	-0.19670714	0.22804739	0.5178882	0.14608055	-0.16051416	-0.018919274	0.24702422	0.2511076	0.21503727	0.12060795	0.73821884	-0.31812447	0.22799346	-0.5026206	0.5080371	0.005244978	0.5728991	0.2899211	-0.3794517	-0.2042585	0.4705833	0.6395938	0.3557574	1.2963552	-0.5358009	0.15798512	0.27658114	0.35208172	-0.34173447	-0.17087835	-0.47834024	-0.38669536	-0.6796533	-0.66640985	-0.2846751	0.30635974	-1.2006936	0.20800939	-0.25675952	0.18566796	0.50543046	0.19117956	0.2644246	-0.8949508	-0.21192256	0.24718496	-0.16954882	0.19829673	-0.13594529	0.0008204151	-0.19294953	0.40945584	-0.45598704	0.40413573	0.10122496	0.022085695	1.0493337	0.159496	-0.6287504	-0.37611416	0.3105341	-0.015432937	0.18672536	0.51074684	-0.08970283	0.030276401	0.68979466	-0.035750315	0.28093052	0.18278627	0.04250011	0.17056501	-0.4913547	-0.003154506	0.87274677	-0.2588273	0.54046637	-0.06516196	0.24889256	-0.026105309	0.09690988	-0.20003635	0.02975701	-0.7511456	0.07964733	0.92584634	-0.52393514	0.10841987	0.4361668	-0.11409173	0.02922914	-0.015038634	-0.37187114	-0.03834285	-0.072879955	0.48788074	-0.114812635	0.25956333	-0.7226984	-0.12345803	-0.33728296	-0.062562585	0.27017888	0.6624057	-0.26803416	-0.22063632	-0.47086155	0.49251303	-0.21819402	0.6044648	0.08220458	-0.23786445	0.23146744	0.2921772	0.26444066	0.65436345	-0.21610817	0.6758339	0.26579842	-0.03226752	0.57017976	-0.57403725	0.09788949	-0.030299481	0.065034464	0.19640023	-0.11654094	0.7297656	0.17390113	0.23498492	0.18539158	-0.54077655	-0.15774143	0.26612195	-0.13148765	-0.35885128	-0.07484071	0.36104164	0.33469683	-0.3134132	-1.1459441	0.3236392	-0.093933545	0.73742354	-0.73561966	0.3245486	0.3975902	0.2843159	-0.25871116	-0.18069024	4.6106055e-05	0.050907068	0.49645835	-0.41731644	-0.13880722	0.1856055	-0.39550903	-0.30208418	-0.04372558	0.5540819	-0.11652625	-0.12395952	-0.07506756	-0.109210454	-0.06886223	-0.23430395	0.40640464	0.12354682	-0.1153498	0.076273575	0.59624046	-0.15699926	-0.06279129	0.5521541	0.14374754	0.08441392	-0.5583245	-0.37343213	0.22513849	-0.16267213	0.6946751	-0.23108906	-0.5274941	-0.60162264	-0.65310717	0.481853	-0.03744631	-0.38598222	0.58506095	-0.07163069	-0.8054874	-0.14496797	-0.08150518	0.30125883	0.054479055	-0.39590505	-0.20558876	0.1749828	0.060938865	0.0373229	-0.36121795	-0.34115973	-0.45435286	0.53667223	-0.21681614	0.7131063	0.08839066	-0.24401475	-0.027726496	-0.2607838	0.108826905	0.29828972	-0.36833438	-0.86659116	-0.2403368	-0.13640426	0.12834652	0.15530927	0.5953264	0.30871552	-0.2509651	-0.78559583	-0.54555607	0.48829406	0.041078232	-0.1905252	-0.13290007	0.57169783	0.06254706	0.6639746	0.64305353	0.3349643	-0.53974164	0.05241257	0.15772973	0.07288982	0.34377295	0.102658674	-0.31331384	-0.26130712	0.784876	-0.027853789	0.29215884	0.28817755	-0.055412997	-0.5670837	0.07431503	-0.038625762	0.7700702	0.29023695	-0.45834398	0.7436993	0.23881444	0.15128417	0.046656303	0.46442473	0.5324878	-0.11101151	0.2683776	0.53630835	0.063902915	0.07799582	0.51542807	-0.53434086	0.15661438	0.19127895	0.32051948	0.31910437	0.27487457	-0.59175587	0.29463828	-0.6010107	0.06666969	0.006418065	0.16965118	0.35693797	0.46074378	0.416073	0.5052885	0.02065989	0.1360357	0.19048236	0.28139517	0.2931191	0.28606245	-0.59337634	-0.47576562	0.4959702	0.35991156	-0.4426836	1.0991719	-0.09760009	-0.27979916	0.44948626	0.3398946	-0.061991066	-0.12890652	0.06439117	0.033067256	0.08932437	-0.47399712	-0.27939895	0.34330726	-0.080158055	-0.22707264	-0.4577426	0.35621154	-0.119857125	0.2589606	0.15575978	0.69214636	-0.61950785	-0.3099809	-0.204605	0.077928476	-0.603919	-0.11521773	1.0504197	-0.22231437	0.07446011	-0.03976339	-0.60143805	-0.17544523	0.42709857	-0.18018988	0.3862491	0.05234451	0.3196306	0.6463637	0.06764627	-0.4902053	-0.1150965	0.07050632	0.11678894	-0.11410065	0.23825389	0.41992673	-0.28883964	-0.47986338	-0.007908432	0.16382477	-0.41904122	-0.18404154	0.22329393	0.015649406	0.029440116	0.58714783	0.09899407	0.29061642	0.25169173	0.17067909	-0.81563056	0.37868506	-0.603868	-0.4273254	0.20543529	0.45985025	0.09269243	-0.7931743	0.28580642	-0.02814659	0.101704024	-0.60024416	1.0428745	0.20312533	-0.34103796	0.2999652	-0.6118381	-0.20071475	0.32451463	0.15096147	-1.0999285	0.11658284	-0.093432665	0.41236567	0.04285813	0.4642186	-0.3058348	-0.92383677	-0.17162266	0.25042978	0.5513822	0.10164827	0.2007559	-0.4905674	-0.021175371	0.069594204	0.30958962	-0.398726	0.28321776	-0.5041607	-0.40954152	-0.39983478	0.009833168	0.9003895	0.79454875	0.39303884	0.34676743	0.60015684	0.20242153	-0.11145685	-0.31528065	-0.15156019	0.2571325	1.0163877	-0.008255864	0.79146624	0.5115898	0.011167912	-0.041575186	-0.6597723	-0.028003681	0.04625874	0.42692947	-0.20200501	-0.08930617	0.010974068	0.71987605	0.31305376	0.11728322	0.047346145	0.13202402	0.30754012	0.011241568	-0.06708637	0.37285817	-0.06840719	0.047876403	-0.8872815	0.38630012	0.26360607	-0.050977968	0.15565957	-0.43579346	0.040243648	0.63600934	-0.86727303	0.32576755	-0.1241402	0.37324673	0.29086322	-0.28330427	-0.5427809	0.05769965	0.47735742	0.102617025	0.3295118	0.33897993	-0.02347338	-0.15236002	0.012332408	0.21730185	-0.38144028	-0.5233618	-0.094424635	-0.7844795	-0.20138673	0.31964418	0.12557036	0.0020769425	-0.39883277	-0.5585527	-0.088608675	-0.22252752	0.043624397	0.061276414	0.5851102	0.88378423	-0.47687995	-0.25149333	0.21560523	-0.23828666	0.04408498	0.055687808	-0.37878683	0.2312959	-0.30549425	-0.014611781	0.42402604	0.1150065	-0.35867605	-0.3873113	0.34579983	0.16213882	0.4520333	-0.23402263	0.31302685	-0.108532704	0.03606356	-0.47418508	-0.32104468	-0.23496045	-0.80537003	0.1979034	-0.44768128	0.2592917	0.24009773	0.41100267	0.060292624	0.40654057	0.8988273	-0.19602048	0.19581649	0.13668957	0.018175196	-0.17254189	0.34912553	0.1138558	-0.35307604	0.15868737	-0.6480236	-0.64054835	0.69976884	-0.22937083	0.10617033	0.124768086	0.60540396	0.1619844	-0.25151905	0.39102104	-0.64939636	-0.5407763	0.79346406	-0.02888117	-0.21562597	-0.8353331	0.33573547	0.5424401	0.26188558	-0.48706087	-0.5590827	-0.012331082	0.046094634	0.64626306	-0.07964596	-0.09999945	-0.09299933	0.60472333	0.43363875	0.22584984	-0.381361	0.24540631	-0.18543148	-0.19128528	-0.25535452	-0.3812684	-0.19796175	0.031906143	-0.6082567	0.42266166	-0.05686988	0.1383385	-0.21341746	-0.6246266	-0.2749156	-0.36938587	-0.44786564	0.4205625	0.2222977	0.1653977	0.50931334	-0.47800437	-0.60791945	-1.392023	-0.14558485	-0.24249192	-0.11155041	0.061083425	-0.39536038	-0.9602118	0.5305229	0.16711399	-0.46838918	0.08806071	0.3529834	0.29313618	0.092058495	-0.4367459	0.07150753	-0.10377864	-0.053726517	0.26111493	0.718782	-0.047614336	-0.2240655	0.12454167	0.27707645	0.6784153	-0.88578427	-0.5762572	0.062929995	-0.8993894	-0.33840325	0.022733388	0.33769575	-0.18815057	0.06009668	0.2487094	-0.49020752	0.3801669	-0.83396614	0.7597435	-0.63189906	0.55816096	-0.25150958	0.34421095	0.33271238	-0.08967084	-0.3458484	-0.105634965	-0.088860184	0.33324602	0.36995175	0.12020007	-0.20112501	-0.4867533	-0.36456525	-0.13016225	0.17902364	0.50992936	0.34863448	0.16827916	-0.0371475	-0.064601034	0.28625712
