G001871415	0.35945168	-0.29537392	-0.243239	0.67452276	0.24345861	0.4775852	-0.56499904	-0.37191525	-0.37399054	-0.063151196	-0.57715714	0.4169964	0.20359072	-0.1735285	0.01349357	0.37447697	-0.23788433	-0.9059107	0.14749433	0.8587375	0.19557321	0.0025184788	-0.20247936	-0.45786163	0.19973312	0.42934287	0.27930775	0.4864477	0.18673117	0.7610733	-0.39176568	-0.15296328	0.6998953	0.14248504	0.20320189	-0.111306205	0.4629893	0.19521107	-0.21717913	0.452545	0.38825995	-0.34353855	-0.33235484	-0.15866275	0.48906898	-0.12637983	0.6163492	-0.0645101	-0.28069535	0.050142758	-0.244002	-0.40800494	-0.45602468	0.19862512	-0.660362	-0.43967497	0.3010513	0.33236143	0.16231993	0.11186957	-0.23125881	0.006447131	0.24122566	0.14249125	0.4857956	0.523791	-0.29421854	-0.026778702	-0.3673197	0.010492273	0.86823237	0.43908054	0.22001159	-0.07933734	0.31045893	-0.16148762	-0.020479145	-0.3128793	-0.13409019	-0.04213968	0.7224808	-0.17962714	-0.33325458	-0.14677468	-0.5433379	0.2079041	0.017206365	0.049407266	-0.11460759	0.23751476	-0.37442347	-0.6761286	-0.6700772	0.16587251	0.5170176	0.21925493	-0.11422387	-0.5660444	0.24350362	0.2762816	0.87857676	-0.00022876076	0.57555544	0.5717691	-0.10693703	-0.7744717	0.3946564	-0.10990984	0.29091504	-0.25402695	0.21151541	-0.35242486	-0.36636963	-0.26713976	-0.13664964	-0.22730327	0.6506409	0.06764333	0.23455483	0.23261803	-0.034875367	-0.62897056	-0.2172367	-0.2951748	0.23323965	0.05888477	-0.1208754	-0.16295458	-0.42314127	0.3880109	-0.5303797	0.5216725	0.03514125	-0.40268338	0.12883793	-0.23081101	-0.006712023	-0.0013755672	-0.22994964	0.38227773	0.2365315	0.35210386	-0.45218644	0.026718963	0.1412951	0.009061947	0.21381436	0.12990583	-0.19037458	0.35757735	-0.42176875	0.18736489	-0.17535266	-0.60873955	0.22491173	0.06029811	-0.47092673	0.014493564	-0.45525914	-0.13243315	0.21208324	0.07238129	-0.39852083	-0.28647107	0.10873505	0.014786869	0.0942723	-0.16551007	0.218183	0.41713062	0.07342562	0.3494156	-0.37323374	0.42206964	-0.31334153	0.39366552	0.87614644	0.1129675	-0.09538766	0.77739066	0.47707227	-0.31177065	0.03952117	0.048702184	-0.07987183	0.00032671727	-0.9079364	-0.06268057	0.2875628	0.18113741	0.5939035	-0.16563798	-0.4941118	0.04441747	0.384849	0.28076553	-0.21892755	-0.39655975	-0.7292151	0.7277302	0.15316278	0.3129997	0.42639515	0.3481834	0.06706559	0.4504306	0.12485202	0.25799915	-0.08604864	-0.49286577	0.15186197	-0.003167389	0.01863139	0.38978538	-0.11144721	-0.2699883	0.15452462	0.1677556	0.43466124	0.06947979	0.23704746	-0.039948817	0.36860275	-0.079389386	-0.09742893	-0.07977766	0.1554609	-0.10289615	0.18935485	0.2704733	0.017991347	-0.21602166	-0.31106454	0.052678093	0.5497779	0.2072237	0.0546289	-0.009422576	0.09256021	-0.10739515	-0.6257519	0.10627839	0.32197243	-0.051163122	-0.21298333	-0.038741738	0.115927786	-0.523483	0.34967238	-0.325022	-0.3641739	0.26406303	-0.23999606	-0.19113368	-1.0161611	0.60643566	0.37510386	-0.109427966	0.09539758	-0.18750566	-0.18045603	0.22348823	-0.35864037	0.30664712	-0.07556763	0.5317708	0.2513504	0.4742268	-0.0062080026	-0.48062494	-0.08581502	0.30149478	-0.35462347	0.108870424	0.090187296	0.2691702	-0.15351221	0.48646244	0.010775123	0.14265645	0.2016435	0.16794807	-0.25247166	0.606717	0.31982625	0.49669346	-0.34504634	-0.59426355	0.062764466	0.46575776	-0.7034302	-0.3477989	-0.18019173	-0.21288097	0.29942197	0.054500427	-0.27372828	0.18162607	-0.17986041	0.05777832	-0.11972685	-0.8592646	0.3424307	0.22731195	-0.18558516	0.34170943	-0.0019647386	0.26512504	-0.3883177	0.3577682	0.40758646	-0.92674047	-0.07994958	0.56513137	-0.17041706	0.86986154	0.42350644	0.1538492	0.2054601	-0.6252695	-0.2885912	0.14021453	-0.059482466	-0.037129633	0.3500828	-0.0144792665	-0.22354816	-0.5781806	-0.24215251	-0.7732219	0.41331485	-0.82698804	-0.14216195	-0.26137283	-0.2111672	0.1660415	0.31107977	0.004380746	-0.18045813	-0.25471058	0.5983679	0.18040304	0.7716005	-0.19242145	-0.5558779	0.3787916	-0.20250866	-0.14802718	-0.7979427	-0.58146095	-0.5718998	0.067865506	-0.22124986	0.39800352	0.2115389	-0.105744556	0.16860563	0.027486898	0.05966412	0.7053486	0.3428441	-0.3759279	-0.51912504	0.13431345	-0.02337162	-0.42790604	0.06885297	-0.47123536	0.56284696	-0.57409376	-0.24540676	0.7299999	-0.60098284	-0.2590123	0.17713818	-0.36744267	0.096188806	-0.23411998	0.19173364	-0.81521356	-0.01409426	0.35979784	-0.47122532	-0.3446046	0.6847521	-0.4818112	-0.08131339	0.62189	0.4234233	-0.06366384	-0.17766869	0.4903246	0.45961985	-0.26417658	0.27237913	0.7167792	0.12265895	-0.4953295	-0.3586345	0.00204782	0.44324338	0.23493338	0.5052321	0.38124353	-0.27648193	-0.9253975	-0.4064396	-0.12903526	-0.45409963	-0.27859947	0.46820202	0.33636978	0.090142235	-0.76815814	-0.07761816	0.73196244	-0.511187	0.17465891	0.3825882	-0.07161416	0.22679146	0.029677661	-0.067909576	0.053003564	-0.27784598	0.3636489	0.096316054	-0.075594954	-0.00022629509	-0.8938646	0.6346461	0.48743007	-0.17890912	0.20221466	-0.087825246	0.10804267	-0.095183134	0.5365059	0.47576243	0.47687277	0.046324283	0.36504015	0.3098329	0.2620014	0.43187425	0.5109722	0.38130724	-0.27713776	0.27526367	-0.91164225	0.17788292	0.15291564	0.21398643	-0.32625476	0.22169039	0.901173	0.42475194	0.047543846	0.84759563	0.7402142	-0.054195642	1.0856322	0.36908022	0.46131635	0.27668822	0.33320174	0.0080430675	0.44477203	0.23575386	-0.01873389	-0.39125925	0.24649501	0.01624669	0.27186143	0.24210908	0.5053213	0.017463699	-0.6395763	-0.09249061	0.03277631	-0.06435914	0.16450407	0.539939	0.030740263	-0.579778	0.4104822	0.16553609	-0.77213913	0.21036309	-0.40517935	-0.50096655	0.37426427	-0.5501747	0.68127555	0.6958716	0.8658496	-0.05783475	-0.12317984	-0.041608214	0.14449807	-0.6246852	-0.29336217	0.17610103	0.47265568	-0.4548447	0.18511824	0.6460343	-0.26074478	0.26443255	0.08963844	-0.7538614	-0.047681294	-0.07745893	0.17951758	0.27110744	0.18960181	0.7254076	0.25860223	0.26136392	-0.44983152	-0.4464592	0.44094524	-0.27356127	-0.23142627	0.07999108	-0.20370062	-0.34344834	0.53564036	0.28914225	0.36601144	-0.039440878	-0.24924523	-0.6207873	-0.0038163178	0.9358517	0.25592178	0.21461828	-0.0033949101	-0.15598993	0.27325025	0.13720626	-0.7650134	-0.37225774	0.554506	-0.2925516	-0.24248251	0.17449363	-0.9143531	0.30620423	0.24132882	0.4057343	-0.054211557	-0.083142124	-0.11523815	-0.46791467	-0.02523714	0.39338523	0.3864886	0.55361396	-0.104214795	0.077553615	0.9529631	-0.49444476	-0.18085502	0.0671121	0.38313144	0.19058965	-0.043334242	0.24891461	-0.37478048	0.063161686	-0.69190013	-0.2952523	-0.0009350333	0.53798825	0.052309833	0.02731804	-0.48511252	-0.012732411	-0.1578496	0.29966533	-0.6631388	-0.043666936	0.22169541	0.35515943	0.6250435	-0.14775741	0.34421837	0.113718495	-0.4630635	-0.31352022	0.22800536	0.1378319	-0.3165012	-0.40721095	-0.22731242	0.16938183	0.5562268	0.015934147	-0.2958848	-0.09004612	-0.25386184	0.37650487	-0.2529703	-0.2868652	-0.24990639	-0.23938885	-0.3259263	-0.17859899	0.37179026	0.68439114	0.008137576	-0.26132816	-0.17272416	-0.14527741	-0.5064597	-0.5705609	-0.17725226	-0.74810874	0.07718429	0.39256927	0.15851343	0.017611187	-0.06836662	-0.28183353	0.13295838	-0.1064093	-0.40966082	0.7158167	0.074028134	-0.052119464	-0.22766657	0.3362613	0.025783865	-0.6186284	-0.3807881	0.81056124	-0.5067506	0.4647088	-0.76360977	-0.3099178	0.1939805	-0.060356252	-0.4429414	0.17383917	0.25234863	0.46474308	0.19293335	-0.42430595	-0.16816096	-0.5010964	0.3849765	0.2246243	0.8992338	-0.13884795	-0.7522967	-0.16289784	-0.051997617	0.08423624	-0.49115643	0.6246334	0.12979735	0.19149414	-0.13064353	0.37814108	-0.0023130048	0.25037238	0.15310995	0.65635836	-0.2901612	0.31886813	0.23146746	0.058943026	0.1783398	-0.31602553	-0.36024243	0.45861003	0.10107241	-0.32439798	-0.22491889	-0.38002726	-0.5907379	-0.40078044	0.47760782	0.09961507	0.060455896	0.006447249	0.1298373	0.28813738	0.16804266	0.119215325	-0.2842712	0.15015312	0.37533608	-0.32279447	-0.26946643	-0.08709196	0.22218235	0.06432332	-0.19238026	-0.5304905	0.114626385	-0.10837831	-0.8598687	-0.67292583	0.13479023	0.23065472	-0.24574542	-0.06268647	0.6307154	0.7887252	-0.23572543	-0.2446744	0.5568347	0.13797249	-0.44309103	0.4731314	-0.4580066	-0.4216209	-0.08851254	-0.1276727	0.18390581	0.16514829	0.52876604	-0.2409007	0.13574988	0.24073789	-0.30680647	-0.4950952	-0.3193177	-0.20557398	-0.114236474	0.40010706	-0.5091427	-0.20402683	0.4139275	0.29993242	0.6519445	0.11658932	0.09345109	0.4513986	0.1250643	-0.31522375	0.07662006	0.123743795	0.133135	-0.07817302	-0.12456475	-0.14006032	-0.47627914	0.035606526	0.22891685	0.34606102	-0.7373129	-0.10418984	0.09354134	0.06700896	-0.13673897	-0.26121157	-0.039716884	0.18595584	0.49405035	0.7768134	0.6033076	-0.019875117	-0.50506663	0.6622622	0.26341808	0.39686775	-0.5157514	-0.3291506	0.5252167	-0.55653244	-0.08747013	-0.030430876	-0.19345804	0.22327037	0.06892532	0.24647383	-0.1103043	-0.3991555	-0.7526151	0.16237698	0.18881771	0.43967742	0.50418353	0.43084994	0.40349996	0.62753576	-0.31749776	0.08714427	-0.304812	0.17885038	-0.1838847	0.5464569	0.31077862	0.20567496	0.5208581	0.34761313	-0.22837944	-0.36652982	0.10887352	0.2809695	0.6052719	-0.15783365	0.306993	-0.37529337	0.31316292	-0.11783534	-0.039107792	0.5777349	0.2337997	-0.34455675	-0.16801383	-0.22401328	0.38877	0.8702749	-0.8255019	0.6554781	0.11036042	0.5087533	-0.21398082	-0.14666906	-0.1352834	-0.5424937	0.12868108	-0.36718172	-0.19929314	-0.27614304	0.37124592	0.3698684	0.3480965	0.1326015	-0.22131734	-0.12761502	-0.082710594	0.46555015	0.14223194	-0.035544436	-0.48145813	0.4227143	0.188794	0.2814353	0.20532614	0.25598732	0.19356535	0.06233938	0.075885996	-0.33741876	0.38926688	-0.17826793	0.3479673	0.30759576	0.017355828	-0.50624853	-0.13167284	-0.108121686	0.31168637	0.20308888	-0.37600368	-0.42306155	0.70967597	0.641585	0.35758236	-0.80447	0.23537453	-0.23018444	-0.15387018	-0.32104295	-0.16069657	-0.14534357	-0.4453845	-0.455844	0.4589356	0.032267757	0.035876706	0.06857642	0.2851521	0.10578789	0.24525696	-0.33298272	-0.51038885	-0.58168733	0.20051754	0.26193294	-0.28628853	-0.03017721	0.24191089	-0.53174835	-0.20010293	-0.15585321	-0.23158765	0.21196613	0.23785877	0.902283	0.3002309	0.25201693	0.37848628	0.4698235	0.20125097	-0.11190081	-0.62953335	-0.22495568	0.024511304	0.16437955	-0.4042369	-0.07622748	0.552706	0.11139178	-0.7710119	0.36020833	-0.08055602	0.6015223	-0.4407158	-0.12860872	0.374566	-0.36176383	0.093721636	-0.4829152	0.12281868	0.016306214	-0.010373309	0.21224606	0.4966158	0.27227738	0.34813967	-0.53125936	0.46726805	-0.9403963	0.65472215	0.05805839	-0.40554076	0.24296883	-0.45422664	-0.5509005	0.42021948	-0.04178547	0.06316279	-0.0354323	0.36998245	0.57597417	-0.19279543	-0.13385324	0.11964648	0.17567384	-0.0076179337	0.14366746	-0.4878959	-0.21012491	-0.24685256	-0.87315834	0.6265532	-0.1330532	0.10408548	-0.14103626	0.10838391	0.6216407	0.0431668	0.33261868	0.5600105	0.24427618	0.8320071	-0.31443766	-0.44231847	-0.71586764	0.28883833	0.10758828	-0.15362383	0.27503285	0.6361543	-0.13606963	-0.09842121	0.11656727	-0.13506354	-0.12292692	-0.70617175	-0.21688244	0.053031266	-0.10251517	-0.38696042	0.2717748	-0.4958785	-0.8130017	0.103363186	-0.32319465	-0.19072427	0.031590834	-0.10873379	0.19308199	0.070490435	-0.27376637	-0.17379579	0.08861159	0.034163915	-0.5312637	0.15652578	-0.0052614063	0.15994494	-0.29001102	0.42237404	0.071799174	0.5136875	-0.5903783	0.60321575	-0.4302406	-1.1296083	-0.15277857	0.5459453	1.2919635	-0.06318691	-0.2667499	0.36627543	-0.25913483	-0.21955352	0.54429805	-0.14887603	0.13661967	0.22917303	0.4573958	0.59421015	0.22274432	0.4168501	-0.03319466	0.057901077
G001940645	0.9270876	-0.16688766	-1.2238622	1.1454613	0.44362488	0.14543286	-0.33652943	-0.7557621	-0.61581916	-0.15152606	0.16422844	0.064719684	0.57956487	-0.13440336	-0.629212	0.31469148	0.042264514	-1.2365354	0.27289304	0.2446843	0.20061818	0.024015967	-0.016206585	-0.08347444	0.7906475	0.75452214	0.45155546	1.1056317	-0.18258698	0.44476193	-0.104797274	-0.69140905	0.50563383	0.8541934	0.31898856	0.45145	0.51104796	-0.22268769	-0.7657338	0.7175519	0.40879843	0.13569412	0.39511114	0.20531192	1.2087594	0.4631898	-0.4976703	-0.27968064	-0.13221298	0.40813464	-0.14774229	-0.08431293	-1.2289792	1.2515152	-0.2779557	-0.6401231	-0.45659423	0.21213405	0.15958738	-0.25892383	0.6283347	0.57602894	-0.17874874	0.23101428	0.36743248	0.55872905	-0.58827126	1.0082183	0.30063948	-0.5845344	1.0921737	-0.33304307	0.41851386	0.47003406	0.5110846	-0.69202423	-0.25220084	-0.24690445	-0.7612002	0.16469932	-0.051634967	0.14893089	-0.69181347	-0.9186818	-0.80967754	0.6123676	0.40373525	0.8335777	-0.11535023	0.4453469	-0.29461613	-0.7451781	-0.33797142	0.27066928	0.5214795	0.89773005	0.023904935	0.08617957	0.057225917	0.0062699188	0.92068523	-0.62482494	0.30282542	0.49267003	0.22630875	-0.9435941	0.29994196	-0.7142579	-0.3211793	-0.015881397	-0.037705142	-0.7557826	-0.9129631	-0.8450906	0.14805977	-0.119654074	0.08115004	-0.58537173	0.48173714	0.27691972	0.794552	-0.6387574	0.42909423	-0.056952395	-0.6911325	-0.7219689	-0.22776449	0.10730974	-0.57716966	0.69559956	-0.41648236	0.45252597	-0.2886581	-0.004823072	0.1435559	0.27338976	0.6172219	0.32439318	-0.6964695	0.89672035	0.32949293	0.4288427	-0.413489	-0.18734801	-0.32530636	-0.14790277	0.0745216	0.48600915	-0.15240663	0.16885456	-0.594593	0.18469042	0.26953444	0.19790375	0.6203674	-0.017276604	-0.19246805	0.3733212	-0.33523726	-0.25603715	0.24050468	-0.13147262	-0.7463225	-0.92871076	0.5768752	-0.070737824	-0.31863028	-0.36032158	0.041185364	0.35831845	0.25177923	0.6782538	-0.55017304	0.8193665	-0.59220535	0.04643675	0.46944562	0.9771352	0.077490486	0.56422216	1.1010296	-0.5430347	0.8429337	-0.27634728	-0.14350775	-0.72661996	-0.8723116	-0.67767596	-0.00097184256	0.20846039	0.3942927	-0.19971275	-0.47044423	-0.27853295	0.32953742	0.09949772	0.2306505	0.18833542	-0.60803163	0.01601159	-0.8446566	-0.24813844	0.04849159	0.162786	0.35367572	-0.61099386	-0.1463565	0.5518952	-0.06697887	-0.83765155	-0.15251616	0.11209282	0.053167783	0.5800331	0.22172353	0.11133002	0.016042303	0.29519165	0.8558374	-0.41196308	-0.40905178	-0.6761344	0.37785596	0.82978565	-0.66038	-0.6732176	-0.24093445	-0.6020781	-0.21049957	0.48387006	0.80637634	-0.5726143	0.01673078	0.16684219	0.56608933	0.4301263	0.22747934	-0.39652428	-0.4246691	-0.42982376	-0.18829876	-0.03464605	-0.030961836	-0.41301128	-0.32581106	-0.35802773	-0.44038886	-0.9152451	-0.056922503	-0.377198	-0.17886764	0.39151707	-0.6311551	0.00042901374	-0.69738865	0.30925798	0.2632043	0.061852105	-0.22215955	-0.4047963	-0.32196283	-0.29432204	0.28344363	0.68487346	-0.28745854	0.64518833	0.34910703	0.57660544	0.5085695	-1.2243183	-0.03373214	-0.19305949	-0.23504366	0.5118929	-0.5717784	0.10686425	0.59963644	0.3959648	0.19241887	0.4807314	-0.27124962	-0.20478368	-0.096530385	0.76359665	0.6466125	0.26069644	-0.8045672	-0.2499418	0.39339626	0.92277306	-0.92312074	0.3339189	-0.07053843	0.09319901	0.91144097	0.095897004	0.27152595	-0.4906833	0.08348994	-0.7856462	-0.28723425	-0.63255423	-0.2165153	-0.50934756	0.002980793	0.86257625	-0.15410812	0.09810501	-0.15517637	0.3342155	0.029196335	-1.1384677	0.27163607	0.84498155	-0.105287135	0.48456237	0.31343877	0.6732393	-1.2266766	-0.6441725	0.07718725	0.13629168	-1.026304	0.27294943	0.09485961	0.084568605	0.110478446	-0.89406615	-0.56623614	-0.8363583	0.39641804	-0.5636009	0.22726363	0.32643804	0.40869898	-0.26063848	-0.40098968	0.32185504	0.9491983	0.012125671	0.71264845	0.16861485	0.03193122	0.42499793	-0.016133197	0.039573334	-0.778491	-0.27323374	-0.9565602	-0.29201233	-1.1577301	0.43288434	-0.25010103	-0.050024964	0.2676849	0.071655005	0.48463553	-0.16946545	-0.44240165	0.6698528	-0.031447753	-0.5517936	-0.85002786	0.07680375	0.4001432	0.05514373	-0.04679183	-0.15435264	0.525982	-0.52295744	0.35395277	1.01714	-0.7102733	0.5846166	1.0611477	-0.71174747	-0.08430138	-0.05804532	0.4529741	-0.94619906	-0.38205284	0.56823283	-0.23355804	0.5277188	-0.5022275	-0.85619944	-0.03884068	0.14288786	-0.14542882	-0.14451726	-0.24352962	0.11544919	0.42269048	-0.13232614	0.048441067	1.1086572	-0.18893135	-0.29758653	0.0137098525	-0.07366197	0.5887743	0.93025213	0.23239951	0.6430947	0.24277836	-1.6863084	0.18117996	-0.9784423	-0.5561085	-0.9869939	0.33661813	0.386477	0.81046456	-0.06158421	-0.09027847	0.91762716	-0.40192682	0.18164514	-0.25079715	0.40980393	0.4705615	0.8961013	-0.19057597	0.35802326	-0.13623205	-0.49741152	0.27163416	-0.1331879	0.17437288	-1.6572394	1.0727996	1.3078123	-0.5676921	-1.0031548	0.08963907	-0.14781064	-0.30759636	0.456764	0.5893211	0.6731096	-0.044529825	0.27397507	0.02910466	1.3581965	0.43470937	0.6798857	0.026558861	0.35013217	0.46348852	-0.391844	0.41956812	-0.7179359	-0.37762892	0.21050732	0.47070876	0.39021736	0.18374154	0.016365511	0.0983225	0.6781782	-0.008690566	1.2811756	0.16126192	-0.2180868	0.06237297	0.69272125	-0.18186367	1.1683376	-0.26218778	-0.021992425	-0.5987611	-0.553348	-0.59229153	0.33106846	0.4651321	0.13122392	-0.16589238	-0.5133273	-0.6625134	-0.7194126	0.05020649	-0.111794524	0.92269665	-0.8639741	-0.78872323	-0.004584683	-0.28456664	-0.8271551	-0.47502625	0.59717375	-0.0963587	0.33186916	-0.94016516	0.29271066	0.14782365	0.83308065	-0.854617	0.11971991	0.12500748	0.22448091	-0.6071174	-0.031384576	0.25820732	0.92116785	-0.38982856	0.45503744	-0.2445579	-0.16015251	0.53997695	-0.46812814	-1.0392989	0.11298738	0.052076582	0.4211329	0.11312419	-0.51756835	0.86254627	0.12489917	-0.014583138	-0.41936415	-0.18079753	0.6098078	-0.10477226	-1.0803262	-0.044833437	0.18685515	-0.33750936	0.18120487	0.015581552	0.28647614	-0.09047256	-0.5546068	-0.7668489	0.6177604	1.0386084	0.24184105	0.9223123	-0.27982646	-0.110557064	0.24702603	0.30814156	0.28335497	-0.22118516	0.43739426	-0.67112774	-0.39141148	0.13227277	-1.203808	-0.12051526	-0.6669064	0.5507915	0.52248335	-0.15483038	0.17625444	-0.055350736	-0.0126076825	0.83677655	0.7956611	0.9072198	0.5129617	0.15372519	-0.044767685	-0.007507842	-0.057884622	0.22106072	-0.066907875	0.33248305	-0.03015187	-0.22049607	-0.96283597	-0.2186565	-0.5354465	0.75108284	0.30379897	0.502373	-0.10839818	0.3342444	0.09328298	-0.006934041	0.38693276	0.10756168	0.004065139	0.6769916	0.29066893	0.6610963	0.84131974	-0.35188445	0.32035312	0.6554333	-0.55261815	-0.38439646	-0.17521699	-0.40536985	-0.19486336	-0.5173632	-0.88216585	-0.2624254	0.3253358	0.854817	-0.500011	0.28345582	-0.3677815	0.9668164	0.25900036	0.900338	-0.029132327	-0.22265428	0.04175774	-1.1162229	0.13851456	0.22495627	0.5782674	-0.2300835	-0.65701437	-0.6777065	-0.98576605	-0.6499446	-1.1685741	-0.30296847	0.12299816	0.29514307	-0.15869054	-0.40276065	-0.005928763	-0.30214542	0.65603936	-0.015755517	-0.36255896	0.19695531	0.24987835	-0.16569948	0.6902345	0.8097902	-0.6149412	-0.42266276	-0.3297196	0.51308304	-0.369882	-0.08880367	-0.12476306	0.017861106	-0.3442957	-0.303922	-0.020558698	0.3701508	-0.045412883	0.95219344	-0.56162566	-1.1926988	-0.3062377	-0.45282808	1.0147644	0.6088505	-0.27973092	-0.041548446	-1.3439921	-0.19682164	-0.39364552	0.06867609	-0.51874286	0.8933371	0.086028725	0.058220487	0.04461107	0.35261253	0.30710438	0.4721572	0.42380512	0.53995943	0.28581917	0.72426957	-0.29871362	0.22081092	-0.40820992	0.056024887	-0.46336946	0.4760527	0.18881643	-0.16453095	-0.20661779	-0.16883948	-0.8301358	-0.4534129	0.23299278	-0.60474	0.90610546	-0.11946412	0.004332373	-0.62152076	0.27990842	0.6043051	-0.020978455	0.100396216	0.060423553	-0.5502686	-0.3403045	-0.55691427	0.63470125	-0.113695756	-0.05307592	-0.07132953	0.0464221	0.4350662	-0.5410305	-1.3416253	-0.26421914	-0.008979027	-0.5864584	-0.9908006	1.3630672	0.96290797	-0.09611735	-0.61064106	0.70381624	-0.0664814	-0.29319957	0.3852676	-1.0283201	0.50121343	-0.65537035	-0.45863432	0.39444447	0.44577482	0.17777732	-0.70754737	-0.14939408	0.12956285	-0.80936617	-1.2114525	-0.123050645	0.4644683	0.3107092	0.7321181	0.19082043	-0.1227545	1.3296608	0.62043715	0.526093	-0.0452872	0.2607524	0.023568612	-0.037087396	-0.33584294	0.669839	0.9363153	0.18051837	0.53449893	-0.60902417	0.121469095	-0.20056634	-0.55199295	0.10354994	0.3221296	-1.0551442	0.0033092685	-0.560954	0.2897357	-0.4505892	-0.22095782	0.066076204	0.029376073	-0.10192022	-0.5998663	1.0688297	0.13144395	-0.39412013	1.4199042	-0.67039376	0.3300468	-0.3150194	-0.0091956295	-0.07461879	-0.6441403	0.08718045	-0.14275706	0.28055906	0.43857205	0.14869323	0.5443436	0.22860876	-0.49137282	-0.69876754	0.13642333	0.040155165	0.5807027	0.3736505	0.30254844	0.8492184	0.14175434	-0.5913033	-0.080678105	0.16587481	-0.065558426	-0.49354836	0.2543827	0.44938302	0.44315714	0.14054374	1.1956779	0.254898	0.24012351	-0.023991378	0.14847395	0.6177156	-0.27666363	-0.24622416	-0.79448557	-0.12567374	0.45087618	-0.67750233	0.19954583	0.35279614	-0.94674873	0.07593451	-0.69736123	0.55962837	0.042336404	-1.0701486	0.3767401	0.040848322	0.6369718	-0.32445976	0.024790322	-0.23832135	-0.15038338	0.68380016	-0.66682786	0.4934781	0.046128653	0.6733774	-0.337666	0.46737203	0.2143778	-0.1952475	0.41425654	0.48926353	0.75298125	-0.21978015	0.26765132	0.11076373	0.80850095	0.09199834	0.6876493	0.14027748	-0.062805496	0.7649346	-0.2829727	0.40847433	-0.6792922	1.3072761	-0.08073401	-0.12943748	0.81376886	0.554983	-0.4606706	-0.13687886	-0.68505543	0.49710763	0.24502689	-0.08844588	-0.5592218	1.5627669	0.41756043	1.0353489	-0.69933337	-0.35065317	0.031285755	-0.791275	-0.3191296	0.26460204	0.010741716	-0.20141105	-0.370724	0.92481416	-0.019751677	0.39396465	-0.15947254	0.45127714	0.5964279	0.67176914	-0.011731435	-0.4337688	-0.21915908	-0.117795855	0.6280252	0.2780511	-0.52942723	0.24586043	-1.0975046	0.3955554	0.36208692	0.26251635	0.07154081	-0.12078233	0.33062726	0.07268694	-0.33359706	0.3794456	1.2146775	0.32282633	-0.6764891	-0.3931704	-0.64171666	0.04987705	0.6426379	0.50077426	-0.6426008	0.09386858	-0.052392814	-0.43332356	0.049220473	-0.47297055	0.72419775	-0.24925704	-0.48332813	0.56200504	-0.6285294	-0.098963805	-0.3643069	0.8815664	-0.27229315	0.07820378	-0.38998115	0.29860654	0.2160355	0.8343219	-0.2830152	0.13447425	-1.1973691	-0.35016567	-0.3732886	-0.7763257	-0.5244268	-0.82870394	-0.45095944	0.18922505	-0.12771279	-0.37510836	-0.08682887	0.097039305	0.21525452	-0.21712047	0.07620675	-0.13305493	0.15929917	0.22642562	0.21494813	-0.60904384	-0.03004582	0.2290063	-0.9152128	-0.3546091	-0.9058989	0.1018106	-0.18188143	-0.25345254	0.6879689	-0.9558148	0.4567355	0.6439566	0.40058103	0.8922816	0.38470927	-0.34264892	-0.85504425	-0.057336457	0.32096794	-0.14413081	0.35738912	0.22522485	0.6241695	-0.5994275	-0.85248834	0.87085617	0.07214704	-1.0063393	-0.28591284	-0.101465896	0.27108705	-1.0616025	0.9530855	-0.13504253	-0.4319453	0.18773822	-0.404263	-0.82908267	-0.27305385	-0.5486363	-0.33226734	0.16085577	0.28316882	-0.30636266	0.23531027	-0.051026806	-0.76915103	0.016971985	0.12563424	0.55941147	0.022066683	0.049400844	0.6409396	0.8028057	0.06250109	0.46868938	-0.11151401	-0.80769455	-0.8802614	1.0889623	1.0541444	-0.13138628	0.32413852	-0.5041924	-0.33825132	-0.5439151	1.0106245	-0.50144696	0.33253998	0.26797643	0.31136838	0.1311029	0.30202365	0.062191755	0.12666982	0.66070485
G000830295	0.7532899	0.223581	-0.58232224	0.93797076	0.26245016	0.46123502	-0.4780002	-0.42702854	-0.71635413	0.07079919	-0.124286905	0.20028034	0.4506839	0.10220231	0.02496429	0.35785645	0.08343652	-0.77729887	0.16348845	0.2565277	0.25105447	0.07715672	-0.34265572	-0.23520276	0.27732363	0.67438084	0.18632779	0.7278164	-0.11755066	0.45864016	-0.39094913	-0.38183892	0.36569402	0.28894725	-0.120271325	0.016373767	0.42117938	0.24583162	-0.25854784	0.81100565	0.4201917	0.00313369	0.063501626	-0.13889591	0.652322	0.09185638	0.37386352	-0.16437839	-0.6886426	-0.17593803	-0.7470368	-0.56428766	-0.81945324	0.48564506	-0.15814833	-0.51290584	0.21109423	0.27369308	0.16782661	0.01866223	-0.12974355	0.107350476	0.33973128	-0.14379771	0.34295374	0.31252652	-0.20412847	0.319069	-0.075204305	-0.42912814	0.56539774	0.16151428	-0.046494685	-0.18780915	0.39020658	-0.44605598	-0.15856473	-0.30829248	-0.5805839	-0.18511891	0.41242766	0.26066977	-0.5045061	-0.48211083	-0.54440033	0.03236806	-0.19178817	0.35573223	-0.21791737	0.46789655	-0.22544609	-0.5033716	-0.3164785	0.044940077	0.4964777	0.35104817	0.22030236	-0.50313234	0.11155516	0.33751184	1.1059989	-0.4013984	0.021172816	0.6025333	0.074619	-0.9449805	0.37564403	-0.35889056	0.14649051	-0.10689	0.3383851	-0.49158838	-0.6474054	-0.22123256	-0.17162006	-0.1957712	0.51752913	-0.24396455	0.3267274	0.22085595	0.055223458	-0.69727975	0.29533896	-0.052161425	-0.0969947	-0.57396567	-0.33516887	-0.63902116	-0.471352	0.5857373	-0.17307429	0.398257	-0.22862197	-0.41408655	0.07113164	-0.31733984	0.16580528	0.27515858	-0.31581	0.8350672	0.26750994	0.9418491	-0.5253231	-0.2819319	0.23035817	0.16899146	-0.012039991	0.42141554	-0.34806317	0.242879	0.0073508746	0.0860531	-0.0020167157	-0.6608732	0.45208508	0.2720903	-0.39337528	0.14138797	-0.48336953	-0.50812554	-0.20115267	-0.09575379	-0.47397438	-0.6092561	0.16616152	-0.07811187	-0.21875773	-0.033283398	0.4148107	0.59637356	0.20418468	0.31936017	-0.5239907	0.54545504	-0.6208048	-0.06671309	0.3208992	0.4209387	0.07434081	0.6314437	0.52369034	-0.03936316	0.07725622	0.087010786	0.0027673282	-0.3024246	-0.59818166	-0.21400686	0.04764886	0.23990048	0.13246584	0.13734391	-0.5173666	-0.39105216	0.45604318	0.073063746	0.21202649	-0.3090437	-0.7968629	0.42533246	-0.12684275	-0.011230107	0.07974703	0.18572512	0.2275406	-0.07401812	-0.07349156	0.46139085	-0.40621293	-0.36347345	-0.2812351	-0.0492059	-0.19216856	0.16910088	0.047135197	-0.14403576	0.26093096	0.42358646	0.2615245	-0.42212325	-0.23451526	-0.20665129	0.13110316	0.04749223	-0.047510445	-0.24932906	0.027195739	-0.26032215	0.15616241	0.50784314	0.53501093	-0.47724378	-0.15973037	0.22538348	0.33343595	0.22788431	-0.08621166	0.008776741	-0.09256501	-0.25995198	-0.328084	-0.27165687	0.10100173	-0.06057328	-0.3796754	-0.002553558	-0.13210137	-0.76247984	-0.00035745464	-0.50303715	0.02120337	0.09050232	-0.24254842	0.0056236032	-0.77794516	0.49165905	0.64611745	0.07344135	-0.19439402	-0.45363918	0.04000546	0.21361911	-0.20366119	0.58029294	-0.28103033	0.20824982	0.30587953	0.5042314	0.10953252	-0.8137996	-0.15603954	-0.028392619	0.0026185298	0.36214066	-0.05227207	0.025540765	-0.03735614	0.39291045	-0.17278892	0.22465102	-0.19426234	-0.101931006	-0.0328388	0.52871037	0.4415756	0.38595647	-0.6600348	-0.3228805	-0.07535295	0.43600795	-0.99549794	0.18757252	-0.023238167	-0.10041294	0.688586	0.25800607	-0.15139976	-0.031581268	-0.28094164	-0.29123685	0.04697059	-0.66120595	0.05795258	-0.38521513	-0.12197632	0.67518806	0.15594001	-0.034652397	-0.25143006	0.30175868	0.33853984	-0.76324874	-0.22734642	1.0412543	-0.3245748	0.7338443	0.44995922	0.49746594	0.17730369	-0.71258956	0.14342277	-0.19090465	-0.38335264	-0.20714614	0.23490699	0.07450123	0.12440522	-1.224192	-0.7607891	-0.6254232	0.5249072	-0.5346999	0.06282393	-0.19896351	-0.15718074	-0.0069030263	0.11125583	-0.08352056	0.16604185	-0.5455849	0.5533527	0.098649256	0.565081	0.07619613	-0.42869228	0.016215166	-0.21405004	0.2409201	-0.78599	-0.810512	-0.63927543	0.32736933	-0.16905606	-0.06438119	0.11341135	0.09956232	0.39086002	-0.2934587	-0.04560514	0.6766887	0.45314875	-0.5496695	-0.6294482	-0.11430945	0.38494784	0.25471407	-0.24937828	-0.26263624	0.65501004	-0.59784216	-0.04706002	0.68746513	-0.1331967	0.077771306	0.655252	-0.30399853	0.11568985	-0.10028451	0.10160142	-1.1188291	-0.31818697	0.31888056	-0.3480687	0.036925133	0.27389327	-0.90893734	-0.08350411	0.45781627	0.15054235	-0.17480077	-0.063858874	0.5608645	0.615264	-0.34215248	-0.017648665	1.0311159	-0.27839363	-0.24356458	-0.33907315	0.0983622	0.60874766	0.7159039	0.33427057	0.14073656	0.11936103	-0.995807	-0.15559782	-0.39036518	-0.6781702	-0.593571	0.25779185	0.5806499	0.34710497	-0.46881443	-0.18595403	0.95785594	-0.3362498	0.021486238	0.09489622	-0.09491646	0.4559493	-0.061657086	-0.16532241	0.5827149	-0.41333732	-0.07944385	0.27549487	0.2397488	0.42072463	-0.9781054	0.76188433	0.64369035	-0.5475996	-0.07924083	0.28710908	0.31753355	-0.46949035	0.40449044	0.77979165	0.5686458	-0.14813265	0.46409658	0.022905761	0.6290035	0.43841296	0.3249472	0.2287306	-0.15898208	0.10955743	-0.54636735	0.2344716	0.050146896	-0.07239021	0.3216606	0.20879577	0.80641484	-0.11196338	0.21667178	0.60050666	0.45337027	-0.3347879	0.5752496	0.35152835	0.02951819	0.42894164	0.38906962	0.14984313	0.79748046	-0.04105158	-0.06297952	-0.6482899	-0.13009274	0.07707912	0.15763278	0.40503564	0.40361485	-0.213766	-0.39358443	-0.18940239	-0.49119085	0.08429519	0.19753957	0.81105304	-0.35361	-0.0376377	0.49819475	0.15941067	-0.69656533	-0.04466519	-0.58289874	-0.13864969	0.3826719	-0.64615786	0.10541542	0.6434158	1.0125649	-0.28917906	-0.08188897	-0.028964786	0.31602433	-0.647094	-0.03964776	0.11726909	0.7218699	-0.49119383	0.14955159	0.46599707	-0.1768432	0.5294888	-0.25697714	-0.97439903	-0.1817373	0.10766872	0.29950857	0.13340893	0.1274039	0.32087916	0.06995738	-0.09966025	-0.3757745	-0.4030778	0.46974573	-0.3859545	-0.72764903	0.29232395	-0.2626123	-0.390924	0.37203985	0.19056371	0.34937704	-0.3447504	-0.3243438	-0.6010825	0.36425743	0.9272401	0.060131054	0.41126627	0.30256945	0.059736397	0.5920211	0.25989863	0.14247355	-0.16681822	0.89605194	-0.3172876	-0.3082228	-0.12265442	-1.3829894	0.19006017	0.10860285	0.77608335	0.09095296	-0.19445209	0.04112252	-0.10071813	0.5487867	0.51716113	0.38202998	0.36244622	0.038800634	-0.016560603	0.24161434	-0.3989642	-0.22892801	0.21474415	0.23024113	0.221242	-0.13355929	0.08085423	-0.6848281	-0.15638252	-0.77453274	0.08968699	-0.09290686	0.58943576	0.017193101	0.084858544	0.082351975	-0.012416044	-0.12229796	0.28928888	-0.3760002	0.4511997	0.090623885	-0.0033135568	0.8448964	-0.26167303	0.34980744	0.08392145	-0.446561	-0.032526437	0.12025614	0.22854514	-0.33195263	-0.9038338	-0.7014974	0.32452172	1.0039631	0.38636717	-0.8752876	0.09486846	-0.42951918	0.8532094	-0.05078072	0.31151623	0.11116057	0.11573791	-0.12794472	-0.6722779	0.43256426	0.42630738	0.35996652	-0.3164022	-0.3239211	-0.7088138	-0.7400355	-0.5690506	-0.4818465	-0.27973574	-0.09864642	0.1569907	0.13242948	0.009456404	-0.06281906	-0.138247	0.26531658	-0.104718246	-0.4777327	0.2852597	0.16231586	-0.056623727	0.093281776	0.63240516	-0.33051297	-0.3832341	-0.34592682	0.52925324	-1.1057647	0.40071955	-0.6507567	-0.18432754	-0.38285896	-0.42258	-0.6053631	0.056118112	0.37697282	0.9145675	-0.11253786	-0.782216	-0.044486694	-0.6352371	0.6200632	0.53979903	0.25208908	0.022819964	-0.86376184	-0.04771185	-0.20451565	-0.10844595	-0.58702105	0.7015012	0.10696646	0.25452885	-0.25737062	0.30441707	0.06282963	0.46150088	0.29073194	0.3855381	0.12343288	0.41040888	-0.06702192	0.19650596	0.096549176	-0.6597232	-0.5961988	0.4042056	-0.25351438	0.060309425	-0.45789304	-0.23998673	-0.3890435	-0.24068567	0.34518453	-0.47610095	0.13132903	0.07971478	0.24624588	0.0655714	0.22786938	0.1666597	0.034871656	0.38882083	0.040408075	-0.48614055	-0.07492024	-0.17008771	0.5882791	-0.0169625	0.015788633	-0.18898875	0.21998727	0.1139401	-0.91932815	-0.49301997	0.19973467	0.23986824	-0.2676767	-0.04471138	1.0295174	0.8212282	-0.23092067	-0.6193366	0.5309811	0.053759176	-0.4192485	0.5455944	-0.7129478	0.060881384	-0.42871836	-0.4288478	0.04429964	0.049610294	0.10123974	-0.61777574	-0.14189671	0.16342258	-0.33534688	-0.38465953	-0.32170948	0.40607148	0.06736149	0.43058565	-0.12533978	-0.18481399	0.7791401	0.5163947	0.16128866	0.18505019	0.16514875	0.042877596	0.1667821	0.06415771	0.18371782	0.58029836	0.25350127	-0.025029287	-0.41037828	0.14142685	-0.13712156	0.009007538	0.22278324	0.16658589	-0.8951952	0.06832746	-0.10136177	0.14261232	-0.17516613	-0.23960875	-0.1448308	0.04825087	0.35086873	0.19254097	0.78312546	-0.5128491	-0.53597057	0.86355275	-0.25070202	0.5340172	0.0054086354	-0.25008312	0.63156325	-0.72337675	-0.08583543	0.13084261	0.09597215	0.685769	0.060289826	0.18684825	0.22514975	-0.58874565	-0.6973403	-0.15974492	0.2465461	0.68589157	0.87488943	0.46428928	0.85719544	0.15507185	-0.37014997	0.043373894	0.20008713	0.04903985	-0.5570853	0.5514531	0.28010947	0.31723225	0.51056486	0.59051955	0.14033772	0.12215714	0.042112224	-0.19877037	0.78959215	0.23884913	-0.124384634	-0.45809743	0.025938438	0.29971302	-0.8045434	0.558531	0.2302523	-0.41141438	-0.038894862	-0.4597911	0.2523481	0.32470876	-0.5062892	0.5442653	0.22315626	0.3524439	-0.18343763	0.08083251	-0.3684627	-0.5405624	0.42497545	-0.03340251	0.19566818	-0.3371174	0.33523232	0.6049332	0.49004966	0.1792393	-0.44085297	0.20920435	-0.05903089	0.47357196	0.28551745	0.1552632	-0.14345099	0.46130455	0.11815168	0.5266826	0.45998585	-0.15833795	0.21426943	-0.392908	0.49175906	-0.4105208	0.6821348	-0.63880926	0.081692144	0.6568112	0.18306592	-0.44555047	0.020436613	0.016937682	0.339329	0.24883154	-0.43205857	-0.8254571	1.0618204	0.6554526	0.5464842	-0.9029984	0.03408618	-0.083117746	-0.41388884	-0.2596504	-0.1865152	0.09081685	-0.29367936	-0.21688706	0.7603418	0.16105103	0.16821085	-0.0051533934	0.24987277	0.19748534	0.3427431	-0.021005142	-0.5449902	-0.5281255	-0.20952418	0.34356865	0.014002288	-0.14632393	0.24894035	-1.4004366	0.23990718	0.08151591	-0.07482427	-0.13177869	0.25865307	0.53202814	0.40571627	-0.20948756	0.46035057	0.4629023	0.20961575	-0.39127815	-0.5258152	-0.2562894	-0.063726366	0.1421171	-0.037382267	-0.17025407	0.49408007	-0.03115001	-0.3798482	0.16286318	-0.31242403	0.87419116	-0.052407905	-0.3983537	0.73523235	-0.3641364	0.2864242	-0.17248984	0.5546713	-0.022392817	0.027960926	0.055102043	0.2653284	0.18774173	0.096305616	-0.35128048	0.33722764	-0.9409935	0.0049017277	-0.27674025	-0.3779272	-0.3170496	-0.51835823	-0.6705	0.3585656	0.0039993357	-0.25312743	-0.027288243	0.24672861	0.30349246	-0.14004384	0.257176	-0.29535303	0.14123078	-0.04797239	0.062048435	-0.14884599	0.21298276	0.038648628	-1.2379212	-0.010048255	-0.37607908	0.33601537	-0.12255524	0.30607474	0.69759285	-0.2599431	0.5171885	0.7583229	-0.020508494	0.82872367	0.23325881	-0.5194438	-0.80580914	-0.08607567	0.03133323	-0.2796303	0.68284476	0.23166454	0.15940924	-0.45263204	0.2387742	0.12598276	0.012216705	-0.5969765	-0.36323288	0.015365573	0.21485363	-0.75888675	0.46748918	-0.32527897	-0.78154856	0.16008608	-0.44239074	-0.15193455	0.23674144	-0.23760565	-0.048641287	0.123672605	0.03351759	-0.07292837	0.026664734	0.21406236	-0.46728066	0.21124263	-0.071790524	0.24242862	-0.34499124	0.08908262	0.3394034	0.5804691	-0.5135687	0.7195279	-0.38106108	-1.0571029	-0.3037925	0.335615	0.9528088	-0.14103614	0.26085913	0.020255266	-0.23906909	-0.40902343	0.762584	-0.49061757	0.17576432	0.19314706	0.42629597	0.25358224	0.55337405	0.07414443	-0.2791035	0.38433212
