G000830275	-0.15073664	0.049023792	-0.19550891	0.34677237	0.50908357	-0.20776525	0.25574437	-0.15619786	0.4788229	-0.48750478	-0.6073402	0.16460165	0.4034147	-0.19047983	0.4633263	0.11248395	0.15544786	0.12386624	-0.49661526	-0.07571493	-0.6947515	-0.46180162	-0.83987296	0.05179426	-0.42284504	-0.3035246	-0.4500163	0.0012687184	0.27300608	-0.79867136	-0.070447035	-0.86672115	-0.3944464	0.16442636	-0.020629687	-0.52550656	-0.11282563	0.03728796	-0.7414386	-0.8311179	-0.33424863	-0.3452024	-0.20386182	0.010430217	0.66451275	0.6812239	-0.3355687	0.11002657	0.066563755	1.033925	0.21618856	0.032648902	0.69854313	0.16640423	0.0005911421	0.3103358	-0.6510379	-0.443075	0.4443958	-0.26398942	0.26142073	0.5566496	0.065562725	0.050692093	1.0367322	-0.6892033	0.19169094	0.25132388	0.67326576	-0.19844043	-0.36277395	-0.24640612	0.43229103	0.0043071937	-0.17205168	0.0124083385	0.10829167	-0.24694873	-0.12470232	0.81922597	-0.47054222	-0.24133754	0.0425711	-1.1542825	-0.35372937	0.1575908	-0.060269073	0.498464	-0.5433458	-0.6082195	0.2989693	0.47484943	0.07075547	-0.20402259	-0.5538799	0.5836424	-0.770801	0.008506628	0.675512	-0.37970608	-0.6451685	-0.054217868	-0.12884791	-0.66285783	-0.17991407	1.2079006	0.072760664	-0.23465443	-0.17891818	-0.12930986	0.3097114	0.51459223	-0.8947107	0.296604	0.06046857	-0.7547493	-0.4385651	0.61785626	-0.31738514	0.3381131	-0.12045587	0.008887768	0.54734206	-0.01107257	-0.41924384	-0.58987886	-0.16004111	0.2147597	0.14461999	-0.41601253	0.09072006	0.22791904	-0.068151966	0.018653955	-0.08503618	0.40919393	-0.045054037	-0.37840208	-0.70225126	-0.48140386	1.0250441	-0.55495626	-0.032502674	0.4555346	1.038235	-0.6486927	0.3722717	0.2538706	0.13914973	0.090037584	0.35268617	-0.29037386	-0.40629837	-0.742409	-0.49320054	0.02496977	-0.1575238	0.25808087	0.017752985	-0.0947254	-0.32236266	0.5075063	0.3208816	-0.19431478	-0.0073145144	-0.13732867	-0.2884405	0.32461065	0.335479	-0.28240448	0.3712547	0.42688355	0.25070414	0.117219225	0.24008663	0.101356365	-0.71363735	0.88627285	-0.013640614	-0.02729599	0.49905914	0.472534	-0.2811107	0.653085	-0.2567714	0.34084082	0.77268785	-0.24815618	0.31566748	-0.25088054	0.017394515	-0.8571907	-0.15193358	-0.48256785	0.15965322	0.1240342	-0.3147936	-0.65331864	-0.57054627	-0.5408103	0.166333	-0.57994187	0.45432463	-0.5879051	-0.2639732	-0.5049649	0.5598488	0.12412673	0.5338972	-0.46898857	-0.09552532	0.15172337	-0.073549904	1.0018708	0.16940086	-0.28492165	-0.058168665	0.5188307	0.043705788	-0.05478003	-0.35115555	-0.1421585	-0.044812597	-0.65216595	0.8356756	0.8963029	-0.15834694	-0.5278951	0.2924506	-0.07847795	0.22291104	0.10036005	0.41125992	0.26600525	0.012177745	-0.21020025	-0.47137624	-0.7201825	-0.36708844	0.77076155	0.15246785	0.30730838	1.2119848	-0.034262247	-0.3602576	0.86916083	-0.72053504	0.052632533	-0.9283226	0.4253916	0.36060444	0.077557504	0.1615043	-0.090443276	-0.18845336	-0.15025668	-0.16142265	0.033991616	0.48695838	0.21592446	0.66857904	0.69023323	-0.021706285	-0.14690714	-0.0059480537	0.19313766	0.24317528	-0.038871184	-0.24881428	-0.8180347	-0.5640474	0.06984986	-0.028987087	0.6849089	0.84364533	-0.1026904	0.05954071	-0.09980939	-0.34181806	-0.18020223	0.5040109	-0.3680948	0.02656287	0.401927	0.2769084	0.65358883	0.015256256	-0.14534765	-0.16070953	-0.22048603	-0.34843698	-0.795795	0.5044801	-0.15079896	-0.22402373	-0.13925108	0.67276496	-0.45301712	-1.086113	0.77819145	0.82893354	0.16466592	-0.023736008	0.042197444	-0.320931	-0.39775714	-0.33681822	0.31755462	-0.01145969	-0.403977	0.05917694	0.39497527	-0.49484327	0.27902988	0.19480635	-0.35031483	-0.84585315	0.08940917	0.17125449	0.010101048	-0.35498005	-0.46794862	-0.09850956	0.5028335	-0.1109472	0.41450527	0.00081942044	0.15485711	-0.16266921	0.012677131	0.4173732	-0.5003249	-0.014298404	0.73850715	0.01864729	0.3698682	0.326085	-0.09937835	0.10426721	-0.58726984	-0.18414049	-0.06784086	0.48505935	0.4281682	0.11869715	0.02791609	0.10472419	1.09999	-1.0570004	-0.27010077	0.30472943	0.24681106	0.07823174	0.29825383	-0.3740753	-0.41509482	0.51887625	0.50569606	-0.5639092	0.014162008	-0.17189091	-0.40969056	0.00065155886	0.03391882	-0.30089372	-0.14705253	-0.29997268	0.10219018	0.2944435	0.10514082	-0.9382064	-0.13893032	0.19754736	-0.06821687	0.2421111	-0.33606347	-1.1228689	-0.6546177	0.31679866	0.29328468	-1.2455268	-0.25806132	0.17228639	-0.22291236	0.107770175	0.20488635	0.24069953	0.021308426	0.056332093	0.2779488	-0.16423488	0.49003446	0.31653973	-0.6788069	0.7939542	-0.06291525	-0.28224564	-0.52770704	-0.040562764	-0.19418016	0.42622006	-0.3021961	-0.36905885	0.35002175	0.09431178	-0.17461464	0.47386703	0.36146533	0.25742817	0.32130873	-0.4081786	0.06908478	0.010119082	0.115623266	-0.0153998155	0.125029	-0.48951173	0.43336308	0.5727759	0.087232366	0.2747686	-0.20660527	-0.13156228	-1.034327	0.10682	0.15063143	-0.6187955	-0.2601076	0.14890839	1.0201317	-0.24914429	0.016670924	-0.35324287	0.17896126	0.38798955	0.09030047	-0.9566913	-0.88723034	0.89755905	-0.1071421	0.6116934	-0.37013575	-0.43600968	-0.4479536	-0.18770361	0.0250113	0.6243729	0.025764877	-0.040224068	-0.3565721	0.0045724995	0.03323589	-0.035102256	0.4779119	0.46986702	0.7597218	0.14406155	0.101924546	0.16743618	0.09226703	0.34446475	0.64726806	0.6358449	0.23636192	-0.014415972	-0.38717654	-0.3175027	-0.8044312	0.26236334	0.7951735	0.24277513	-0.38529098	0.067855954	-0.014223143	0.4032578	0.17244436	-0.05064132	-0.039587833	-0.2004202	0.2761641	0.36802417	-0.5646965	-0.4578426	0.1280442	0.19916128	0.27663398	0.1200002	0.32679057	0.17624888	-0.37228316	0.044031024	-0.12021752	-0.35972098	-0.09060628	0.4169569	0.042284388	0.48103473	0.5383853	-0.9718207	-0.62052536	0.11972779	0.09149544	0.20568636	-0.38807824	-0.11840027	-0.27022943	-0.03186191	0.10403843	0.02474144	-0.25247613	-0.40737736	-0.8324265	-0.39302334	-0.6440578	-0.53012246	0.20270614	0.21636026	-0.07048738	-0.32252884	0.2765422	-0.045028105	0.41069117	0.70746666	-0.7283412	0.109426595	1.2805781	-0.37233165	0.4426724	-0.0645514	0.05686692	-0.026103824	-0.2107056	-0.37883222	-0.2549654	-0.6871874	0.33854532	0.031690463	0.45573008	0.3569306	-0.5119575	-0.40073612	0.8159113	-0.4920379	0.28229997	0.1753869	0.14963464	0.38247904	-0.11507254	0.6084716	-0.44833428	0.015757803	0.2668419	0.07337725	-0.13708387	-0.23049095	0.15009487	-0.44224113	0.740634	-0.20888662	-0.20880362	0.24744943	0.50399095	0.9871657	-0.85657614	0.71991354	0.057968337	-0.08553962	-0.84424436	-0.5441205	-0.19247809	0.07607761	-0.50627506	0.46667647	0.273737	-0.05477988	1.0450978	-0.06424261	-0.34057897	-0.37111902	0.564803	-0.41058517	-0.2180613	-0.22967102	-0.05400888	-0.45568338	0.4383912	-0.17501692	0.7096954	0.3717277	0.68550396	0.03334887	0.37657037	-0.37442026	0.42483884	0.8825349	0.7203795	-0.29190114	0.1251786	-0.028501881	-0.41269803	-0.22805138	0.04627247	-0.16150469	-0.17279935	-0.21603684	0.22028609	-0.115555204	0.5149576	-0.6129889	-0.46479774	0.52791756	0.77389777	0.46386087	-0.020691497	-0.2996383	-0.2844691	0.15409926	0.070026085	0.39380917	0.26823995	-0.6744245	0.30571666	-0.8204636	-0.11271337	-0.007012395	0.17563392	-0.46143994	-0.23968339	0.009177454	-0.3332519	-0.16182438	-0.40267947	-0.946531	0.22979598	1.0108542	-0.046274446	-0.1682342	0.29829615	0.27717096	-0.27205843	-0.4806984	0.39001682	0.79594976	0.07957722	0.37833014	0.06071239	0.44738728	-0.26598233	-0.67236865	0.27499098	0.0656932	-0.17692645	0.28380978	-0.018499007	-0.6778967	-0.12185941	-0.039269432	-0.031034915	-0.13441853	0.67285573	0.31762975	-0.763081	0.05688206	-0.58936757	-0.24318591	0.4149344	0.20199864	0.37600628	0.5834273	0.7760595	0.6184269	-0.033548404	0.5220258	1.3776593	0.057403304	-0.09656992	-0.06692569	0.170314	-0.6354364	-0.23121981	-0.22117412	-0.32513246	-0.15649681	-0.10290978	-0.24242808	0.8314376	-0.10792115	0.13156593	-0.31306967	0.12872303	0.016537452	0.15777151	0.7044916	-0.21142675	0.5301018	0.54115194	-0.33272478	-0.012172159	0.17671818	0.23114182	0.267016	0.12472836	0.24968699	-0.13485065	0.46722287	-0.062305525	-0.3911193	0.21766481	0.36036882	0.15201683	-0.6985395	-0.40370208	0.4522377	-0.00743434	0.29170224	0.0018471405	-0.2680376	0.33143085	-0.61040425	0.88488567	-0.49453568	-0.015948672	0.008635573	-0.57902056	-0.3524644	0.913566	0.21658576	-0.0024650106	-0.8843774	-0.7125829	0.0016181106	0.5968497	0.16179875	0.34344307	-0.33810616	0.27952674	-0.42736182	0.3207358	-0.7893228	-0.022517543	-0.17863719	-0.1901392	-0.00586503	-0.74715966	0.00046124123	-0.06942156	0.19529417	0.7777388	0.7643113	-0.21441495	0.7097868	0.40329078	0.39342943	-0.4111465	-0.17053835	-0.11722454	-0.3078627	-0.7203516	0.4773002	-0.16749287	-0.52198195	-0.9008759	-0.23869829	-0.09228154	0.28642726	-0.047261924	-0.052023113	-0.037327707	0.10532805	-0.50044155	0.38673863	1.1009507	0.28411144	0.033878885	-0.32502365	-0.41062504	-0.40915972	0.3788452	0.84280175	-0.088584326	0.42770895	0.67552686	-0.42439902	-0.04849991	0.076142594	0.7781648	-0.48138833	-0.20936313	0.5430591	0.6730386	0.02959025	-0.18601316	0.01379936	0.74783593	-0.24050525	-0.5019506	-0.03578528	0.12478486	0.18176804	0.16796805	0.06006138	0.26568955	0.16500032	0.48278323	-0.7764036	0.005199231	-0.4604778	-0.35453758	0.7190373	-0.34976065	-0.34996563	0.085821286	0.099281564	-0.024964798	0.101854615	-0.49344194	-0.12890688	0.116293415	0.3823871	-0.37026763	-0.12092015	-0.059762724	0.04848589	-0.08397747	0.38921025	0.14246054	0.13347602	-0.83944494	0.23184963	-0.49558714	-0.5047573	-0.65334547	-0.03452365	-0.43412557	-0.2306246	0.73562497	0.5660682	-0.47382092	-0.11697577	-0.4962565	-0.18992469	0.26899624	-0.3084713	0.19958259	-0.33828458	-0.19363935	0.76662135	0.4496879	-0.13566305	0.026427152	0.048636235	0.17636733	0.03169703	0.12928782	0.06297622	0.52144	0.17667018	0.5905281	-0.2091043	-0.576769	0.25558692	0.82136863	-0.20612372	-0.3694114	-0.0210666	0.7189754	-0.100936644	-0.6330995	0.21821503	-0.18527624	-0.117386445	-0.51599294	-0.5491938	-1.154044	-0.30892158	-0.1518335	-0.16591413	0.35660315	0.4722296	-0.655004	0.03170427	0.34030563	0.53246856	-0.32116184	0.42078292	0.009014787	0.012993124	0.25161624	0.876853	-0.34808177	-0.1955714	0.048497327	-0.46916303	0.04035616	-0.063214235	-0.32560298	-0.25529847	-0.25758854	-0.3595348	-0.7993862	-0.3867259	-0.7355754	0.82125044	0.2821187	0.16890045	0.45578068	-0.30772492	-0.48730907	-0.29654583	-0.15333499	-0.48302266	-0.3181398	0.44783717	-0.22494109	0.5754711	0.11516872	-0.10172992	0.3662565	0.29706037	0.5397798	-0.1323498	0.7541242	-0.03203268	-0.03648186	-0.14797466	1.0934916	0.29070172	-0.50074196	0.3221653	-0.8161847	-0.051693924	0.3728888	-0.032178782	0.7531421	-0.5202737	0.4409398	0.38925368	0.57059824	0.39573643	0.22265421	-0.23234133	-0.7462241	0.19624497	0.03968826	0.2530039	-0.038392484	-0.46138966	0.10179933	-0.7036954	-0.37311754	-0.051622033	0.036284693	0.15127364	0.22245519	-0.17306016	0.05708902	0.06781758	-0.09828518	-0.2527546	-0.87306994	-0.61934996	-0.08207953	-0.23033366	0.18590564	0.70271224	0.31221393	0.70663095	0.5747502	-0.33233246	-0.56049234	-0.1072085	0.4321773	-0.28346705	0.3594196	0.044745658	0.46643934	-0.36606875	-0.7047721	-0.31616455	-0.7369536	-0.33794412	-0.37155318	1.1003335	0.23143807	0.39355323	-0.208074	0.8778254	0.51884365	-0.30315262	0.29412556	0.6032403	-0.5517366	0.3417335	-0.37778178	-0.41252854	-0.11614126	0.57924163	0.13931297	0.6852972	0.112255104	-0.013696425	0.032018445	0.11067441	-0.4457578	-0.39391252	-0.0063150395	0.7224321	0.37965077	0.42106694	-0.21312608	0.3731604	-0.5250638	-1.0133681	-0.29982677	0.19492525	0.22027369	-0.079619154	0.35476062	-0.46634117	-0.2063321	0.027683822	-0.6224495	-0.28416976	-0.3739293
G000402355	0.16474713	-0.30460635	-0.11658243	0.5055991	0.28382123	-0.105898395	-0.05463949	-0.09198483	0.60544527	-0.32441026	-0.2800875	0.5353168	0.2894682	-0.054951683	0.41343704	0.40882352	0.025165506	0.17042337	-0.3014831	0.063479245	-0.5775597	-0.032430373	-0.75742066	-0.26793292	-0.6960398	-0.1285135	-0.38817275	0.10277806	0.19617915	-0.5865909	-0.086395554	-0.92346025	-0.50127214	0.3824629	0.1757452	-0.3564416	-0.48774752	-0.04597761	-0.95197755	-0.8250118	-0.4278689	-0.25422972	-0.21357024	-0.17159957	0.8529291	0.009641083	-0.24975353	0.11302826	0.1977599	0.7284148	0.24531357	0.2485156	0.44907165	0.26184282	-0.062121868	0.27704224	-0.38150153	-0.3434178	0.20204073	-0.22958337	0.18238652	0.6493425	0.24708787	0.050687555	0.73885524	-0.5593783	0.02768445	-0.022510009	0.39354366	-0.12638882	-0.5082384	-0.107782796	0.40859345	0.18939704	-0.30422387	-0.094201334	0.18055043	-0.030644195	-0.13284613	0.71161425	-0.29581505	-0.18427245	0.18726858	-0.74911183	-0.3832896	0.07470855	0.19040479	0.31812477	-0.406793	-0.42198402	0.2644987	0.3645313	0.020598369	-0.16517462	-0.47540253	0.646692	-0.4406028	0.07096675	0.59459925	-0.48249066	-0.70826423	0.09802516	-0.04016254	-0.50053996	-0.38157162	0.8719844	-0.21207726	-0.22641423	-0.123643465	-0.26742017	0.06736146	0.5107283	-0.6913855	0.044511184	-0.0044599343	-0.38623407	-0.21327385	0.6767928	-0.13845876	0.29686862	-0.06693332	0.105841726	0.30419725	0.0150768515	-0.623096	-0.396359	-0.1042646	0.2906303	0.08068525	-0.45251772	0.37573138	0.46871573	-0.0065310337	-0.007321473	0.009440606	0.4335694	0.07089971	-0.55679584	-0.82322145	-0.4009458	0.62481487	-0.2455727	-0.13410929	0.5646318	0.5657147	-0.66115266	0.5497193	0.22599915	-0.009251924	0.012491164	0.60586506	-0.016685795	-0.33756542	-0.31593376	-0.14125523	0.16013238	-0.26447797	0.3431626	-0.008818077	0.22962837	0.01897307	0.50073177	0.53366345	0.0021389276	-0.045274716	-0.22976367	-0.21121143	0.32559156	0.2149463	0.062134504	0.0557242	0.37961265	0.4245863	0.046156723	-0.19573356	0.49569118	-0.42342284	0.5073371	0.12117845	-0.14463973	0.17075188	0.43894202	-0.13903023	0.6107038	-0.22115962	0.35640624	0.81186485	-0.28582823	-0.026665146	0.037450865	0.12440836	-0.75038123	-0.18134011	-0.15553187	0.18271726	0.33967137	-0.67640376	-0.6015306	-0.72806835	-0.8309563	0.14459941	-0.31121182	0.09592186	-0.4843162	-0.41618705	-0.26088613	0.5525875	-0.12062298	0.7236696	-0.38990393	-0.12876105	0.26030993	0.02742667	0.59014016	0.059582092	-0.24273764	-0.098766044	0.46750197	0.022611093	-0.20680413	-0.24070342	0.21341552	-0.03802944	-0.4285147	0.67526615	0.85277224	-0.60508156	-0.3613599	0.31557336	-0.07618039	-0.20595545	0.08518311	0.13179396	0.30528945	0.21887226	-0.23034367	-0.47432745	-0.24975687	-0.57686734	0.5360301	0.23737165	0.07340423	0.6810423	-0.6083004	-0.11600671	0.58875257	-0.814111	-0.045311414	-0.8964294	0.019895395	0.22853647	-0.045850426	0.1004026	-0.17251842	-0.0507249	-0.107167944	-0.050882213	0.17459722	0.53677857	0.5143629	0.14766203	0.9582428	0.029602481	0.07367526	0.0537809	0.18098076	0.014459536	-0.0001744926	-0.13719627	-0.63889223	-0.6301596	0.32091016	-0.14494768	0.77494323	0.3926719	-0.18224317	0.18166292	0.2702605	-0.12969428	-0.16302891	0.5511548	-0.16666535	0.17685159	0.33030444	0.42545676	0.32199904	-0.080147296	-0.31601533	0.040331043	-0.18864708	-0.286562	-0.76445824	0.31138942	-0.23402353	-0.012420502	-0.34979296	0.3841401	-0.516922	-1.4467645	0.5160283	0.57125264	0.33585945	0.16175273	-0.12154367	-0.26409984	-0.064824566	-0.37971824	0.1267085	-0.16015361	-0.16318277	0.26393643	0.3538353	-0.26111796	0.11002868	-0.0036006477	-0.2681751	-0.67505723	0.20443143	0.49688888	-0.14759007	-0.46879384	-0.011336166	-0.13296033	0.2168964	0.028860733	0.45302892	-0.26548293	0.14949556	-0.15956743	0.10140848	0.27030596	-0.16565298	0.13597102	0.5300337	0.2862714	0.27859184	0.40392816	-0.31553903	-0.18475978	-0.7668984	-0.29588655	-0.112559006	0.33766466	0.04388204	0.28429538	-0.18865621	0.039319217	0.8252447	-0.735188	-0.35325274	-0.1349402	0.033529103	-0.10290001	0.32303607	-0.23935361	-0.3366677	0.24103318	0.24515155	-0.28038958	-0.023510005	0.111747466	-0.16953167	0.18733527	0.16383266	-0.5791301	-0.3853723	0.121293105	0.29584303	0.32542914	0.12726684	-0.9833554	-0.11305589	0.06577918	0.12416076	0.13836692	-0.20174205	-0.97977316	-0.27150503	0.13044475	0.11789186	-1.2531861	-0.18533982	0.21162349	-0.16060771	-0.03978393	0.21557026	-0.20141494	0.07866385	-0.03231779	0.18662184	0.15681803	0.31019858	0.11449978	-0.47105384	0.5395006	0.23438552	-0.1989662	-0.2583255	-0.2654263	-0.20785642	0.31138512	-0.12275863	-0.015379766	0.349684	-0.004063083	-0.06530986	0.38694733	0.22333825	0.31775704	0.4511292	-0.5780141	-0.007390341	0.38036934	-0.31432658	-0.09996781	-0.18124183	-0.52691644	0.541631	-0.081198335	0.1374268	-0.0070895683	-0.30859625	0.15382685	-0.51182884	0.06852794	0.24863417	-0.8241291	-0.21257675	-0.0903743	0.87978256	0.0044691917	0.016295124	-0.17002997	-0.07965173	0.23509608	0.068083644	-0.767484	-0.7389245	0.81899524	-0.1192689	0.6434048	-0.31870684	-0.34868616	-0.641726	0.19219027	-0.0075012613	0.44076	0.09639523	-0.23938012	-0.4433759	0.09673686	0.21101166	0.1203762	0.4168616	0.40150833	0.43008897	0.1737323	0.104369074	0.13293669	0.112129204	0.31666148	0.38525456	0.7043546	-0.018765304	0.02739878	-0.01572241	-0.18033467	-0.87681746	0.11614439	0.67121696	0.016157111	0.04090669	0.10593374	0.05527295	0.29791903	0.07803206	-0.011002084	-0.13514641	-0.35674667	0.32649422	0.20667695	-0.68798226	-0.32047826	0.22676732	0.1087445	0.044701926	-0.017229114	0.07590959	0.24312344	-0.3460039	-0.47965756	0.25044206	-0.26219562	0.14729524	-0.0153319705	-0.06138527	0.16120806	1.0496638	-1.2513317	-0.08573034	-0.029487398	0.15808673	-0.034110833	0.07274735	-0.4456576	-0.14169453	-0.1901315	-0.10544278	0.14705047	-0.137269	-0.5854204	-0.55077225	-0.54672253	-0.7087487	-0.23751026	0.086635664	0.19455966	-0.24964508	-0.22141154	0.12606385	-0.102453835	0.3754197	0.75696933	-0.40139347	0.25212243	0.8149973	-0.2602269	0.40353212	0.2702051	0.2680924	0.090156585	-0.11183751	-0.25686055	-0.51468074	-0.583019	0.18329191	0.045165963	0.16923909	0.29921788	-0.46572497	-0.22842877	0.6349264	-0.18210046	0.48928663	0.22754282	0.16668059	-0.044379927	-0.08926071	0.50920266	-0.5671386	0.022280026	0.17616956	-0.12523077	0.0424719	-0.12842707	0.4758604	-0.3410735	0.58464646	-0.23062193	-0.08217882	0.5295192	0.37744153	0.7807517	-0.9036492	0.7247306	0.14385349	0.13289927	-0.8739927	-0.3210455	-0.24102062	-0.06740322	-0.6176924	0.41538304	0.19603066	-0.11710261	0.90801966	0.33518156	-0.49820676	-0.33910513	0.66074616	-0.41153395	-0.45761874	0.11698503	0.18436438	-0.3422719	0.25813973	-0.26104626	0.4357335	0.36236227	0.5038551	0.053548526	0.21791977	-0.43508935	0.24159068	1.0503916	0.69516057	-0.22888541	0.3755711	0.03307949	-0.4249717	-0.373424	0.23223127	-0.35092622	0.065957785	-0.1961357	0.25930473	0.066186145	0.37969497	-0.78140587	-0.4172758	0.74461424	0.72424966	0.3258371	0.08589271	-0.38628873	-0.093983166	0.19703075	0.2379547	0.103648	0.33386466	-0.49031964	0.017160129	-0.52924156	0.12715007	-0.34441513	0.014036724	-0.5111648	-0.34897107	-0.117368676	-0.22930203	-0.253506	0.19710824	-0.60908765	0.1278726	1.0746818	-0.27740586	-0.18736887	0.3730836	0.22685075	-0.09636634	-0.2974739	0.27632898	0.49435842	0.21424255	0.7581823	0.28955263	0.4176989	-0.34739983	-0.76991236	-0.09312456	-0.053490967	-0.2754736	0.13915168	-0.30939528	-0.28409022	-0.3364363	0.24906908	-0.14875303	-0.18017775	0.2710458	0.1761246	-0.56203693	0.25492933	-0.67829794	-0.5245995	0.58642614	-0.13329813	0.010397691	0.81857646	0.8131776	0.5292891	-0.028366249	0.43131557	1.0165142	-0.17572944	-0.13589866	-0.5332961	0.6636285	-0.4726232	-0.075357124	0.06707374	-0.0513978	0.04014039	-0.19789866	-0.3108771	0.55731183	0.31779394	-0.33395752	-0.16622156	0.093283385	-0.14298399	0.42120132	0.62155914	-0.05832418	0.34421298	0.5500751	-0.191409	0.2823061	0.016096875	0.07331536	0.11135653	0.13008127	0.1132347	-0.35015932	0.4077453	-0.06311624	-0.40180665	0.17165555	0.057865947	0.12269565	-0.9573479	-0.08014046	0.5976011	0.18642841	0.4315293	0.28606832	0.05461807	0.17806041	-0.6999675	0.6327615	-0.10560298	-0.11101885	-0.29849178	-0.6577615	0.03607899	0.8303961	0.374088	0.29843357	-1.0277478	-0.81611544	0.16526914	0.023584496	0.10059935	0.27187297	-0.35455465	0.42419282	-0.4436972	0.35070008	-0.68919957	-0.09107888	-0.25562176	-0.4338987	-0.012710579	-0.7714765	0.015809303	-0.05974018	0.4181346	0.7515886	0.6028386	-0.13710836	0.65847427	0.36160314	0.3813768	-0.07660938	-0.15084432	-0.24446991	-0.09433287	-0.3961865	0.43156803	-0.09166065	-0.38058135	-0.7307391	-0.1541555	0.10172545	-0.11813264	0.29105192	-0.08207283	0.06688991	-0.07143453	-0.29212406	0.06440892	1.1573596	0.41579998	-0.23540501	-0.36770308	-0.032739148	-0.6036295	0.3042192	0.47549465	-0.096717864	0.053943973	0.6338631	-0.31833485	-0.027121421	0.11276157	0.7597625	-0.27510715	-0.36267748	0.46712753	0.52855015	0.17063633	0.06360605	-0.22974016	0.7739571	-0.045986176	-0.3948067	-0.033090025	-0.15648156	0.2910287	-0.066986695	0.065877885	0.17322247	0.58103347	0.08814275	-0.91371137	0.03711038	-0.15785006	-0.34763303	0.5644683	-0.175693	-0.33533695	0.08874468	-0.040717762	-0.0036814548	0.282702	-0.40432915	0.07402378	0.19906472	0.39649585	0.25953034	-0.21784347	-0.041066557	0.12780818	-0.050205894	0.15631288	0.08771169	0.15304933	-0.644865	0.45505512	-0.29069996	-0.14146647	-0.7393448	-0.26143423	-0.35613272	0.11588696	0.65178025	0.7779369	-0.20671703	0.16657889	-0.53791827	-0.09662861	0.16600627	-0.52767324	0.3781356	-0.1598558	-0.0009906385	0.8394873	0.1954706	-0.15297784	-0.11353949	0.09070519	0.5587961	0.0645396	0.3211464	-0.19844618	0.31150097	-0.08163248	0.5434753	-0.08883293	-0.7564308	0.30360568	0.84503746	-0.10676448	-0.07929614	-0.008110398	0.6183539	0.15443209	-0.38546154	0.30904973	-0.48605084	-0.006097328	-0.4248778	-0.26108566	-0.6302689	-0.110968605	-0.099738725	0.006318705	0.49288315	0.56077677	-0.7282624	-0.05060888	0.17813978	0.44642192	-0.34548584	0.22919577	0.3972063	-0.005048665	0.2672666	0.8557376	-0.21638037	0.009896345	0.04806707	-0.318313	0.06898335	-0.17923145	-0.15948746	-0.48495713	-0.09445401	-0.34269652	-0.6468934	-0.47644064	-0.74377066	0.33867407	0.11544495	0.05100652	0.40612817	-0.09836017	-0.44079518	-0.56920457	-0.14030218	-0.51723397	-0.28646335	0.20922859	-0.41670087	0.6673135	0.12810293	0.11826377	0.47250965	0.18132657	0.6549252	0.13854922	0.7131623	0.10683563	0.00014526676	0.00912058	0.859417	0.44611508	-0.4875146	0.24972272	-0.83920634	0.24231929	0.13036233	0.047789864	0.6613661	-0.26662368	0.21074186	-0.009135159	0.82663655	0.72886544	0.405576	-0.23603965	-0.58761764	0.3308161	0.06777381	0.045000814	-0.0834849	-0.59741724	-0.11819637	-0.35069266	-0.23869124	0.17834988	-0.13832979	-0.14137906	0.35612285	0.055559702	0.2501641	-0.31764698	-0.049641706	-0.5420485	-0.30833873	-0.6476378	-0.24793422	-0.34765002	0.06336335	0.86271864	0.42239347	0.5230786	0.40897366	-0.14474702	-0.5425366	0.12783015	0.13770095	-0.3842675	0.39199695	-0.01687124	0.3540973	-0.24525112	-0.3822174	-0.06636915	-0.8391009	-0.10661239	-0.37725326	0.8887956	0.3076314	0.42815527	-0.19525193	0.91040176	0.4055636	-0.5970861	0.4420399	0.23508443	-0.31534913	0.1392019	-0.19328727	-0.26063725	0.026239991	0.457397	0.18778248	0.8347937	-0.14253592	0.15113238	-0.023094798	0.12093684	-0.36290035	-0.45541307	-0.22870718	0.36137688	0.3578583	0.38875592	-0.34798107	0.2135067	-0.25769094	-0.7696156	-0.12001041	-0.03844457	0.07404302	-0.0018546488	0.1845595	-0.40141064	-0.25367665	0.036799155	-0.8113951	-0.10418731	-0.15107942
